{"learner":{"attributes":{},"feature_names":["longitude","latitude","B2","B3","B4","B5","B6","B7","B8","B8A","B11","B12","VV","VH","NDVI","NDWI","SAVI"],"feature_types":["float","float","float","float","float","float","float","float","float","float","float","float","float","float","float","float","float"],"gradient_booster":{"model":{"cats":{"enc":[],"feature_segments":[],"sorted_idx":[]},"gbtree_model_param":{"num_parallel_tree":"1","num_trees":"223"},"iteration_indptr":[0,1,2,3,4,5,6,7,8,9,10,11,12,13,14,15,16,17,18,19,20,21,22,23,24,25,26,27,28,29,30,31,32,33,34,35,36,37,38,39,40,41,42,43,44,45,46,47,48,49,50,51,52,53,54,55,56,57,58,59,60,61,62,63,64,65,66,67,68,69,70,71,72,73,74,75,76,77,78,79,80,81,82,83,84,85,86,87,88,89,90,91,92,93,94,95,96,97,98,99,100,101,102,103,104,105,106,107,108,109,110,111,112,113,114,115,116,117,118,119,120,121,122,123,124,125,126,127,128,129,130,131,132,133,134,135,136,137,138,139,140,141,142,143,144,145,146,147,148,149,150,151,152,153,154,155,156,157,158,159,160,161,162,163,164,165,166,167,168,169,170,171,172,173,174,175,176,177,178,179,180,181,182,183,184,185,186,187,188,189,190,191,192,193,194,195,196,197,198,199,200,201,202,203,204,205,206,207,208,209,210,211,212,213,214,215,216,217,218,219,220,221,222,223],"tree_info":[0,0,0,0,0,0,0,0,0,0,0,0,0,0,0,0,0,0,0,0,0,0,0,0,0,0,0,0,0,0,0,0,0,0,0,0,0,0,0,0,0,0,0,0,0,0,0,0,0,0,0,0,0,0,0,0,0,0,0,0,0,0,0,0,0,0,0,0,0,0,0,0,0,0,0,0,0,0,0,0,0,0,0,0,0,0,0,0,0,0,0,0,0,0,0,0,0,0,0,0,0,0,0,0,0,0,0,0,0,0,0,0,0,0,0,0,0,0,0,0,0,0,0,0,0,0,0,0,0,0,0,0,0,0,0,0,0,0,0,0,0,0,0,0,0,0,0,0,0,0,0,0,0,0,0,0,0,0,0,0,0,0,0,0,0,0,0,0,0,0,0,0,0,0,0,0,0,0,0,0,0,0,0,0,0,0,0,0,0,0,0,0,0,0,0,0,0,0,0,0,0,0,0,0,0,0,0,0,0,0,0,0,0,0,0,0,0,0,0,0,0,0,0],"trees":[{"base_weights":[-7.00533E-2,-1.4601645E0,1.2889677E0,-1.547408E0,-3.6836325E-4,3.8822323E-1,3.49459E-2,-3.434072E-2,-7.3156226E-1,-2.025577E-2,9.2874765E-1,-5.1593995E-3,-1.9252576E-2,-4.3584714E-3,2.8684169E-2],"categories":[],"categories_nodes":[],"categories_segments":[],"categories_sizes":[],"default_left":[0,0,0,0,0,0,0,0,0,0,0,0,0,0,0],"id":0,"left_children":[1,3,5,7,-1,9,-1,-1,11,-1,13,-1,-1,-1,-1],"loss_changes":[3.779095E2,1.1612579E1,3.9271988E1,9.133774E0,0E0,2.985863E1,0E0,0E0,1.0816689E0,0E0,1.7461962E1,0E0,0E0,0E0,0E0],"parents":[2147483647,0,0,1,1,2,2,3,3,5,5,8,8,10,10],"right_children":[2,4,6,8,-1,10,-1,-1,12,-1,14,-1,-1,-1,-1],"split_conditions":[4.1472092E-2,2.7991983E-1,2.0644945E-1,1.2809391E-1,-3.6836325E-4,6.3054964E-2,3.49459E-2,-3.434072E-2,3.2124385E-2,-2.025577E-2,4.967229E0,-5.1593995E-3,-1.9252576E-2,-4.3584714E-3,2.8684169E-2],"split_indices":[4,8,8,10,0,11,0,0,2,0,1,0,0,0,0],"split_type":[0,0,0,0,0,0,0,0,0,0,0,0,0,0,0],"sum_hessian":[1.96E2,9.7E1,9.9E1,9.1E1,6E0,3.5E1,6.4E1,7.3E1,1.8E1,9E0,2.6E1,8E0,1E1,8E0,1.8E1],"tree_param":{"num_deleted":"0","num_feature":"17","num_nodes":"15","size_leaf_vector":"1"}},{"base_weights":[-5.223749E-2,-1.2880692E0,1.1540356E0,-1.402643E0,9.632265E-3,1.2346446E-1,3.3475064E-2,-1.6549371E0,-7.710589E-1,-2.4616245E-2,5.6780595E-1,-3.438196E-2,-1.1764335E-2,-0E0,-2.2369556E-2,-5.613227E-3,2.0511413E-2],"categories":[],"categories_nodes":[],"categories_segments":[],"categories_sizes":[],"default_left":[0,0,0,0,0,0,0,0,0,0,0,0,0,0,0,0,0],"id":1,"left_children":[1,3,5,7,-1,9,-1,11,13,-1,15,-1,-1,-1,-1,-1,-1],"loss_changes":[2.862826E2,2.10737E1,5.064186E1,1.0575943E1,0E0,2.2127867E1,0E0,1.0673218E0,8.434885E0,0E0,1.1823284E1,0E0,0E0,0E0,0E0,0E0,0E0],"parents":[2147483647,0,0,1,1,2,2,3,3,5,5,7,7,8,8,10,10],"right_children":[2,4,6,8,-1,10,-1,12,14,-1,16,-1,-1,-1,-1,-1,-1],"split_conditions":[4.1472092E-2,2.7793407E-1,2.0769271E-1,5.9059102E-2,9.632265E-3,5.8976144E-2,3.3475064E-2,4.9706516E0,3.5200592E-2,-2.4616245E-2,4.967229E0,-3.438196E-2,-1.1764335E-2,-0E0,-2.2369556E-2,-5.613227E-3,2.0511413E-2],"split_indices":[4,8,7,11,0,11,0,1,4,0,1,0,0,0,0,0,0],"split_type":[0,0,0,0,0,0,0,0,0,0,0,0,0,0,0,0,0],"sum_hessian":[1.88E2,9.3E1,9.5E1,8.8E1,5E0,3.3E1,6.2E1,6E1,2.8E1,7E0,2.6E1,5.5E1,5E0,9E0,1.9E1,9E0,1.7E1],"tree_param":{"num_deleted":"0","num_feature":"17","num_nodes":"17","size_leaf_vector":"1"}},{"base_weights":[8.027757E-3,-1.3245775E0,1.1494062E0,-1.6331365E0,-4.9939898E-1,1.5024671E-1,1.6156636E0,-1.696417E0,-1.1596271E-2,5.98212E-3,-7.7983904E-1,-7.276761E-1,1.0880268E0,3.422232E-2,4.198198E-3,-3.611796E-2,-1.54135255E-2,-7.2346213E-3,-2.0974265E-2,-2.4635179E-2,-0E0,3.8412127E-3,2.7292393E-2],"categories":[],"categories_nodes":[],"categories_segments":[],"categories_sizes":[],"default_left":[0,0,0,0,0,0,0,0,0,0,0,0,0,0,0,0,0,0,0,0,0,0,0],"id":2,"left_children":[1,3,5,7,9,11,13,15,-1,-1,17,19,21,-1,-1,-1,-1,-1,-1,-1,-1,-1,-1],"loss_changes":[2.8738565E2,1.9454178E1,4.614984E1,1.0272827E0,6.753062E0,3.0579084E1,7.579727E0,1.7051849E0,0E0,0E0,8.968611E-1,6.6287937E0,3.1582031E0,0E0,0E0,0E0,0E0,0E0,0E0,0E0,0E0,0E0,0E0],"parents":[2147483647,0,0,1,1,2,2,3,3,4,4,5,5,6,6,7,7,10,10,11,11,12,12],"right_children":[2,4,6,8,10,12,14,16,-1,-1,18,20,22,-1,-1,-1,-1,-1,-1,-1,-1,-1,-1],"split_conditions":[3.973847E-2,-6.0517626E0,2.1221226E-1,4.9706516E0,-6.045939E0,-6.0503564E0,7.1340346E-1,1.2673768E-1,-1.1596271E-2,5.98212E-3,4.969952E0,4.9075887E-2,5.087914E-1,3.422232E-2,4.198198E-3,-3.611796E-2,-1.54135255E-2,-7.2346213E-3,-2.0974265E-2,-2.4635179E-2,-0E0,3.8412127E-3,2.7292393E-2],"split_indices":[4,0,7,1,0,0,14,10,0,0,1,4,14,0,0,0,0,0,0,0,0,0,0],"split_type":[0,0,0,0,0,0,0,0,0,0,0,0,0,0,0,0,0,0,0,0,0,0,0],"sum_hessian":[1.85E2,8.5E1,1E2,6E1,2.5E1,3.3E1,6.7E1,5.5E1,5E0,6E0,1.9E1,1.7E1,1.6E1,6.2E1,5E0,4.7E1,8E0,1E1,9E0,9E0,8E0,5E0,1.1E1],"tree_param":{"num_deleted":"0","num_feature":"17","num_nodes":"23","size_leaf_vector":"1"}},{"base_weights":[9.70407E-3,-1.2826434E0,1.1937939E0,-1.6054423E0,-5.069269E-1,6.763913E-1,3.4961026E-2,-1.720271E0,-1.1596608E-2,1.863457E-2,-8.744936E-1,1.304474E0,-2.75565E-3,-3.5945144E-2,-1.1708747E-2,-4.477064E-3,-2.3264054E-2,3.0936489E-2,9.208162E-3,-1.0515865E-2,1.1940816E-2],"categories":[],"categories_nodes":[],"categories_segments":[],"categories_sizes":[],"default_left":[0,0,0,0,0,0,0,0,0,0,0,0,0,0,0,0,0,0,0,0,0],"id":3,"left_children":[1,3,5,7,9,11,-1,13,-1,-1,15,17,19,-1,-1,-1,-1,-1,-1,-1,-1],"loss_changes":[3.0141785E2,2.0853745E1,2.5960785E1,4.5100555E0,1.799382E1,2.4971992E1,0E0,1.6841888E0,0E0,0E0,3.669693E0,3.7088356E0,9.689984E0,0E0,0E0,0E0,0E0,0E0,0E0,0E0,0E0],"parents":[2147483647,0,0,1,1,2,2,3,3,4,4,5,5,7,7,10,10,11,11,12,12],"right_children":[2,4,6,8,10,12,-1,14,-1,-1,16,18,20,-1,-1,-1,-1,-1,-1,-1,-1],"split_conditions":[4.1472092E-2,-6.0517626E0,-6.0473394E0,1.2809391E-1,-6.7462337E-1,-6.0591135E0,3.4961026E-2,4.969745E0,-1.1596608E-2,1.863457E-2,4.9695745E0,4.9701004E0,-6.0503564E0,-3.5945144E-2,-1.1708747E-2,-4.477064E-3,-2.3264054E-2,3.0936489E-2,9.208162E-3,-1.0515865E-2,1.1940816E-2],"split_indices":[4,0,0,10,15,0,0,1,0,0,1,1,0,0,0,0,0,0,0,0,0],"split_type":[0,0,0,0,0,0,0,0,0,0,0,0,0,0,0,0,0,0,0,0,0],"sum_hessian":[1.93E2,9.2E1,1.01E2,6.3E1,2.9E1,5.5E1,4.6E1,5.5E1,8E0,5E0,2.4E1,2.8E1,2.7E1,5E1,5E0,9E0,1.5E1,2E1,8E0,1.5E1,1.2E1],"tree_param":{"num_deleted":"0","num_feature":"17","num_nodes":"21","size_leaf_vector":"1"}},{"base_weights":[2.8077802E-3,-1.2014221E0,1.0991132E0,-1.4895872E0,-2.3233962E-1,1.7746794E-1,1.5166612E0,-1.572549E0,-3.4959172E-3,2.0842437E-2,-8.715327E-1,-7.1772045E-1,1.0802913E0,3.201167E-2,3.9331E-3,-3.3069175E-2,-1.2203174E-2,-8.135011E-3,-2.3807403E-2,-2.1397863E-2,-0E0,3.5499784E-3,2.6832916E-2],"categories":[],"categories_nodes":[],"categories_segments":[],"categories_sizes":[],"default_left":[0,0,0,0,0,0,0,0,0,0,0,0,0,0,0,0,0,0,0,0,0,0,0],"id":4,"left_children":[1,3,5,7,9,11,13,15,-1,-1,17,19,21,-1,-1,-1,-1,-1,-1,-1,-1,-1,-1],"loss_changes":[2.69271E2,2.5534653E1,3.979155E1,6.6483154E0,2.2096865E1,3.0827068E1,6.5586395E0,2.2232819E0,0E0,0E0,9.0049267E-1,5.093398E0,3.2471752E0,0E0,0E0,0E0,0E0,0E0,0E0,0E0,0E0,0E0,0E0],"parents":[2147483647,0,0,1,1,2,2,3,3,4,4,5,5,6,6,7,7,10,10,11,11,12,12],"right_children":[2,4,6,8,10,12,14,16,-1,-1,18,20,22,-1,-1,-1,-1,-1,-1,-1,-1,-1,-1],"split_conditions":[4.1472092E-2,-6.0513186E0,2.0769271E-1,3.9618228E-2,-6.045939E0,-6.0503564E0,7.1340346E-1,1.2809391E-1,-3.4959172E-3,2.0842437E-2,-1.4327456E1,1.3076246E-1,5.087914E-1,3.201167E-2,3.9331E-3,-3.3069175E-2,-1.2203174E-2,-8.135011E-3,-2.3807403E-2,-2.1397863E-2,-0E0,3.5499784E-3,2.6832916E-2],"split_indices":[4,0,7,4,0,0,14,10,0,0,13,10,14,0,0,0,0,0,0,0,0,0,0],"split_type":[0,0,0,0,0,0,0,0,0,0,0,0,0,0,0,0,0,0,0,0,0,0,0],"sum_hessian":[2E2,9.5E1,1.05E2,7.2E1,2.3E1,3.4E1,7.1E1,6.7E1,5E0,7E0,1.6E1,1.7E1,1.7E1,6.6E1,5E0,6E1,7E0,9E0,7E0,1.1E1,6E0,5E0,1.2E1],"tree_param":{"num_deleted":"0","num_feature":"17","num_nodes":"23","size_leaf_vector":"1"}},{"base_weights":[-1.564854E-2,-1.3155818E0,1.0315261E0,-1.5643338E0,-5.7312614E-1,2.0333625E-1,1.4781358E0,-3.277713E-2,-1.31210005E-2,-9.113696E-1,1.16449315E-2,-6.3721526E-1,9.427075E-1,3.1594135E-2,-0E0,-3.9288164E-3,-2.3709552E-2,-1.7121008E-2,-0E0,2.4064848E-2,-0E0],"categories":[],"categories_nodes":[],"categories_segments":[],"categories_sizes":[],"default_left":[0,0,0,0,0,0,0,0,0,0,0,0,0,0,0,0,0,0,0,0,0],"id":5,"left_children":[1,3,5,7,9,11,13,-1,-1,15,-1,17,19,-1,-1,-1,-1,-1,-1,-1,-1],"loss_changes":[2.8327512E2,1.4314087E1,4.109407E1,1.3049622E0,1.1777372E1,2.8077784E1,1.0506149E1,0E0,0E0,3.1545773E0,0E0,3.198246E0,6.1793137E0,0E0,0E0,0E0,0E0,0E0,0E0,0E0,0E0],"parents":[2147483647,0,0,1,1,2,2,3,3,4,4,5,5,6,6,9,9,11,11,12,12],"right_children":[2,4,6,8,10,12,14,-1,-1,16,-1,18,20,-1,-1,-1,-1,-1,-1,-1,-1],"split_conditions":[3.973847E-2,-6.0517626E0,2.071311E-1,4.969745E0,-7.3912334E0,-6.0505795E0,7.1642894E-1,-3.277713E-2,-1.31210005E-2,4.9695745E0,1.16449315E-2,9.555864E-2,2.1952398E-1,3.1594135E-2,-0E0,-3.9288164E-3,-2.3709552E-2,-1.7121008E-2,-0E0,2.4064848E-2,-0E0],"split_indices":[4,0,8,1,12,0,14,0,0,1,0,5,9,0,0,0,0,0,0,0,0],"split_type":[0,0,0,0,0,0,0,0,0,0,0,0,0,0,0,0,0,0,0,0,0],"sum_hessian":[2.04E2,9.1E1,1.13E2,6.6E1,2.5E1,4.1E1,7.2E1,5.9E1,7E0,2E1,5E0,1.9E1,2.2E1,6.7E1,5E0,7E0,1.3E1,1.4E1,5E0,1.7E1,5E0],"tree_param":{"num_deleted":"0","num_feature":"17","num_nodes":"21","size_leaf_vector":"1"}},{"base_weights":[-2.1967947E-2,-1.2131156E0,9.4437397E-1,-1.326438E0,8.114796E-3,1.5314853E-1,1.3623778E0,-1.4284542E0,-4.920567E-3,-9.285695E-1,9.72508E-1,1.5004911E0,-4.758508E-3,-3.0478751E-2,-1.4003169E-2,-3.3019215E-2,-7.1654236E-3,4.065513E-3,2.4718484E-2,1.9639183E-2,3.4169722E-2],"categories":[],"categories_nodes":[],"categories_segments":[],"categories_sizes":[],"default_left":[0,0,0,0,0,0,0,0,0,0,0,0,0,0,0,0,0,0,0,0,0],"id":6,"left_children":[1,3,5,7,-1,9,11,13,-1,15,17,19,-1,-1,-1,-1,-1,-1,-1,-1,-1],"loss_changes":[2.2573047E2,1.7680557E1,3.4544342E1,7.608078E0,0E0,3.728069E1,1.681691E1,1.9694519E0,0E0,5.228014E0,3.6410103E0,2.309845E0,0E0,0E0,0E0,0E0,0E0,0E0,0E0,0E0,0E0],"parents":[2147483647,0,0,1,1,2,2,3,3,5,5,6,6,7,7,9,9,10,10,11,11],"right_children":[2,4,6,8,-1,10,12,14,-1,16,18,20,-1,-1,-1,-1,-1,-1,-1,-1,-1],"split_conditions":[3.4041356E-2,2.7991983E-1,1.8274325E-1,1.31947E-1,8.114796E-3,-6.0503564E0,7.1642894E-1,-6.039777E0,-4.920567E-3,5.5029746E-2,-1.5253028E1,-8.329487E0,-4.758508E-3,-3.0478751E-2,-1.4003169E-2,-3.3019215E-2,-7.1654236E-3,4.065513E-3,2.4718484E-2,1.9639183E-2,3.4169722E-2],"split_indices":[2,8,6,10,0,0,14,0,0,11,13,12,0,0,0,0,0,0,0,0,0],"split_type":[0,0,0,0,0,0,0,0,0,0,0,0,0,0,0,0,0,0,0,0,0],"sum_hessian":[1.92E2,8.6E1,1.06E2,8.1E1,5E0,3.8E1,6.8E1,7.3E1,8E0,1.6E1,2.2E1,6.3E1,5E0,6.2E1,1.1E1,5E0,1.1E1,7E0,1.5E1,2.2E1,4.1E1],"tree_param":{"num_deleted":"0","num_feature":"17","num_nodes":"21","size_leaf_vector":"1"}},{"base_weights":[-8.859699E-3,-1.2151827E0,9.787491E-1,-1.5186127E0,-3.0904993E-1,1.0954008E-1,1.4279156E0,-1.5973095E0,-6.775018E-3,2.6045214E-2,-1.7342074E-2,-4.7159696E-1,1.1355723E0,3.0217431E-2,3.5640975E-3,-3.360251E-2,-1.15294885E-2,-1.5580022E-2,-0E0,2.7861675E-2,7.4364166E-3],"categories":[],"categories_nodes":[],"categories_segments":[],"categories_sizes":[],"default_left":[0,0,0,0,0,0,0,0,0,0,0,0,0,0,0,0,0,0,0,0,0],"id":7,"left_children":[1,3,5,7,9,11,13,15,-1,-1,-1,17,19,-1,-1,-1,-1,-1,-1,-1,-1],"loss_changes":[2.3243236E2,2.2342926E1,4.069332E1,3.9851227E0,2.4520761E1,2.4657398E1,5.873947E0,2.0070953E0,0E0,0E0,0E0,3.926989E0,1.0317154E0,0E0,0E0,0E0,0E0,0E0,0E0,0E0,0E0],"parents":[2147483647,0,0,1,1,2,2,3,3,4,4,5,5,6,6,7,7,11,11,12,12],"right_children":[2,4,6,8,10,12,14,16,-1,-1,-1,18,20,-1,-1,-1,-1,-1,-1,-1,-1],"split_conditions":[3.973847E-2,-6.0513186E0,2.1221226E-1,1.2809391E-1,-6.7567843E-1,-6.0485334E0,7.1340346E-1,4.970128E0,-6.775018E-3,2.6045214E-2,-1.7342074E-2,5.0912946E-2,3.8940188E-2,3.0217431E-2,3.5640975E-3,-3.360251E-2,-1.15294885E-2,-1.5580022E-2,-0E0,2.7861675E-2,7.4364166E-3],"split_indices":[4,0,7,10,15,0,14,1,0,0,0,4,2,0,0,0,0,0,0,0,0],"split_type":[0,0,0,0,0,0,0,0,0,0,0,0,0,0,0,0,0,0,0,0,0],"sum_hessian":[1.91E2,8.6E1,1.05E2,6.3E1,2.3E1,3.7E1,6.8E1,5.8E1,5E0,5E0,1.8E1,2.4E1,1.3E1,6.3E1,5E0,5.2E1,6E0,1.4E1,1E1,8E0,5E0],"tree_param":{"num_deleted":"0","num_feature":"17","num_nodes":"21","size_leaf_vector":"1"}},{"base_weights":[-5.3795274E-2,-1.3257378E0,1.0005083E0,-3.242561E-2,-8.0923027E-1,1.11840434E-1,1.4224485E0,-4.5088693E-1,-1.1096052E0,-8.993373E-1,5.714868E-1,2.9438583E-2,9.420104E-3,1.4934307E-3,-1.5200956E-2,-2.615967E-2,-9.442729E-3,-0E0,-3.223199E-2,-6.7029106E-3,2.1796383E-2],"categories":[],"categories_nodes":[],"categories_segments":[],"categories_sizes":[],"default_left":[0,0,0,0,0,0,0,0,0,0,0,0,0,0,0,0,0,0,0,0,0],"id":8,"left_children":[1,3,5,-1,7,9,11,13,15,17,19,-1,-1,-1,-1,-1,-1,-1,-1,-1,-1],"loss_changes":[2.6297208E2,9.746613E0,3.9035896E1,0E0,2.201723E0,1.8061008E1,1.0315704E0,3.8683205E0,1.5112686E-1,8.475081E0,1.3796127E1,0E0,0E0,0E0,0E0,0E0,0E0,0E0,0E0,0E0,0E0],"parents":[2147483647,0,0,1,1,2,2,4,4,5,5,6,6,7,7,8,8,9,9,10,10],"right_children":[2,4,6,-1,8,10,12,14,16,18,20,-1,-1,-1,-1,-1,-1,-1,-1,-1,-1],"split_conditions":[3.9618228E-2,4.9691358E0,2.071311E-1,-3.242561E-2,-1.4310662E1,6.3054964E-2,7.1340346E-1,3.462799E-2,3.1008892E-2,3.4980647E-2,4.967229E0,2.9438583E-2,9.420104E-3,1.4934307E-3,-1.5200956E-2,-2.615967E-2,-9.442729E-3,-0E0,-3.223199E-2,-6.7029106E-3,2.1796383E-2],"split_indices":[4,1,8,0,13,11,14,4,2,2,1,0,0,0,0,0,0,0,0,0,0],"split_type":[0,0,0,0,0,0,0,0,0,0,0,0,0,0,0,0,0,0,0,0,0],"sum_hessian":[1.92E2,8.7E1,1.05E2,5.2E1,3.5E1,3.5E1,7E1,1.9E1,1.6E1,1E1,2.5E1,6.5E1,5E0,7E0,1.2E1,1E1,6E0,5E0,5E0,9E0,1.6E1],"tree_param":{"num_deleted":"0","num_feature":"17","num_nodes":"21","size_leaf_vector":"1"}},{"base_weights":[5.4181553E-2,-1.1400421E0,1.027985E0,-1.3827971E0,-3.685452E-1,2.4068408E-1,1.3880043E0,-1.4418684E0,-7.6928223E-3,-7.974298E-1,1.7814187E-2,-6.975419E-1,1.0904424E0,1.4607623E0,9.323852E-3,-3.034012E-2,-1.1967502E-2,-4.1151964E-3,-2.0918088E-2,-2.4067482E-2,-0E0,2.5142655E-2,6.529046E-3,1.8047303E-2,3.2832883E-2],"categories":[],"categories_nodes":[],"categories_segments":[],"categories_sizes":[],"default_left":[0,0,0,0,0,0,0,0,0,0,0,0,0,0,0,0,0,0,0,0,0,0,0,0,0],"id":9,"left_children":[1,3,5,7,9,11,13,15,-1,17,-1,19,21,23,-1,-1,-1,-1,-1,-1,-1,-1,-1,-1,-1],"loss_changes":[2.3603864E2,1.5148003E1,3.0263191E1,1.9869843E0,1.4875788E1,3.2013794E1,2.7717896E0,1.1196442E0,0E0,1.8840561E0,0E0,6.684474E0,1.0617657E0,2.7345276E0,0E0,0E0,0E0,0E0,0E0,0E0,0E0,0E0,0E0,0E0,0E0],"parents":[2147483647,0,0,1,1,2,2,3,3,4,4,5,5,6,6,7,7,9,9,11,11,12,12,13,13],"right_children":[2,4,6,8,10,12,14,16,-1,18,-1,20,22,24,-1,-1,-1,-1,-1,-1,-1,-1,-1,-1,-1],"split_conditions":[4.09118E-2,-6.0513186E0,2.1501844E-1,3.9594408E-2,-7.540524E0,-6.0503564E0,4.1272908E-1,4.9694886E0,-7.6928223E-3,4.9695745E0,1.7814187E-2,4.9075887E-2,2.1032141E-1,-8.329487E0,9.323852E-3,-3.034012E-2,-1.1967502E-2,-4.1151964E-3,-2.0918088E-2,-2.4067482E-2,-0E0,2.5142655E-2,6.529046E-3,1.8047303E-2,3.2832883E-2],"split_indices":[4,0,7,4,12,0,16,1,0,1,0,4,9,12,0,0,0,0,0,0,0,0,0,0,0],"split_type":[0,0,0,0,0,0,0,0,0,0,0,0,0,0,0,0,0,0,0,0,0,0,0,0,0],"sum_hessian":[1.99E2,8.9E1,1.1E2,6.6E1,2.3E1,3.6E1,7.4E1,6.1E1,5E0,1.8E1,5E0,1.7E1,1.9E1,6.7E1,7E0,5.4E1,7E0,7E0,1.1E1,9E0,8E0,1.4E1,5E0,2E1,4.7E1],"tree_param":{"num_deleted":"0","num_feature":"17","num_nodes":"25","size_leaf_vector":"1"}},{"base_weights":[-7.7466264E-2,-1.2056444E0,8.779323E-1,-1.4687328E0,-4.792863E-1,1.0217067E-1,1.3269132E0,-3.0608783E-2,-8.269867E-3,-8.517164E-1,1.7262543E-2,-6.4016265E-1,8.573587E-1,1.3983724E0,7.041576E-3,-7.8966385E-3,-1.9991092E-2,-1.7866254E-2,-0E0,2.183722E-2,-0E0,1.9160002E-2,3.1072818E-2],"categories":[],"categories_nodes":[],"categories_segments":[],"categories_sizes":[],"default_left":[0,0,0,0,0,0,0,0,0,0,0,0,0,0,0,0,0,0,0,0,0,0,0],"id":10,"left_children":[1,3,5,7,9,11,13,-1,-1,15,-1,17,19,21,-1,-1,-1,-1,-1,-1,-1,-1,-1],"loss_changes":[2.2539777E2,1.5963348E1,3.837245E1,2.2553253E0,1.5963273E1,2.5872751E1,3.086029E0,0E0,0E0,1.3457489E-1,0E0,4.14054E0,4.552416E0,2.1185303E-1,0E0,0E0,0E0,0E0,0E0,0E0,0E0,0E0,0E0],"parents":[2147483647,0,0,1,1,2,2,3,3,4,4,5,5,6,6,9,9,11,11,12,12,13,13],"right_children":[2,4,6,8,10,12,14,-1,-1,16,-1,18,20,22,-1,-1,-1,-1,-1,-1,-1,-1,-1],"split_conditions":[3.973847E-2,-6.0517626E0,2.1221226E-1,4.970128E0,2.4841715E-1,-6.0503564E0,4.1272908E-1,-3.0608783E-2,-8.269867E-3,4.9695745E0,1.7262543E-2,5.6208186E-2,1.8694577E-1,-8.329487E0,7.041576E-3,-7.8966385E-3,-1.9991092E-2,-1.7866254E-2,-0E0,2.183722E-2,-0E0,1.9160002E-2,3.1072818E-2],"split_indices":[4,0,7,1,8,0,16,0,0,1,0,3,7,12,0,0,0,0,0,0,0,0,0],"split_type":[0,0,0,0,0,0,0,0,0,0,0,0,0,0,0,0,0,0,0,0,0,0,0],"sum_hessian":[2.05E2,9.4E1,1.11E2,6.7E1,2.7E1,4.2E1,6.9E1,6.2E1,5E0,2.2E1,5E0,2.1E1,2.1E1,6.3E1,6E0,8E0,1.4E1,1.5E1,6E0,1.6E1,5E0,2.1E1,4.2E1],"tree_param":{"num_deleted":"0","num_feature":"17","num_nodes":"23","size_leaf_vector":"1"}},{"base_weights":[2.0560432E-2,-1.0370004E0,1.0940838E0,-1.3056005E0,-3.4237337E-1,3.0751774E-1,1.3899993E0,-1.3696207E0,-5.699244E-3,-6.747215E-1,1.741953E-2,-5.710164E-1,8.563269E-1,5.835002E-3,2.9199269E-2,-2.8597586E-2,-8.151727E-3,-4.23428E-3,-2.06216E-2,-1.8894276E-2,-0E0,2.9549896E-4,2.4080016E-2],"categories":[],"categories_nodes":[],"categories_segments":[],"categories_sizes":[],"default_left":[0,0,0,0,0,0,0,0,0,0,0,0,0,0,0,0,0,0,0,0,0,0,0],"id":11,"left_children":[1,3,5,7,9,11,13,15,-1,17,-1,19,21,-1,-1,-1,-1,-1,-1,-1,-1,-1,-1],"loss_changes":[2.1687244E2,1.6193398E1,2.0408272E1,2.8353348E0,1.3174841E1,1.5102888E1,3.4972382E0,1.567833E0,0E0,3.0669317E0,0E0,2.3346727E0,4.9141636E0,0E0,0E0,0E0,0E0,0E0,0E0,0E0,0E0,0E0,0E0],"parents":[2147483647,0,0,1,1,2,2,3,3,4,4,5,5,6,6,7,7,9,9,11,11,12,12],"right_children":[2,4,6,8,10,12,14,16,-1,18,-1,20,22,-1,-1,-1,-1,-1,-1,-1,-1,-1,-1],"split_conditions":[4.1472092E-2,-6.0517626E0,2.0644945E-1,3.9594408E-2,-7.3912334E0,-6.0503564E0,5.6328718E-2,4.970128E0,-5.699244E-3,4.969952E0,1.741953E-2,1.652604E-1,-1.5253028E1,5.835002E-3,2.9199269E-2,-2.8597586E-2,-8.151727E-3,-4.23428E-3,-2.06216E-2,-1.8894276E-2,-0E0,2.9549896E-4,2.4080016E-2],"split_indices":[4,0,8,4,12,0,11,1,0,1,0,8,13,0,0,0,0,0,0,0,0,0,0],"split_type":[0,0,0,0,0,0,0,0,0,0,0,0,0,0,0,0,0,0,0,0,0,0,0],"sum_hessian":[1.87E2,9.4E1,9.3E1,6.6E1,2.8E1,2.7E1,6.6E1,6.1E1,5E0,2.3E1,5E0,1E1,1.7E1,5E0,6.1E1,5.6E1,5E0,1.2E1,1.1E1,5E0,5E0,6E0,1.1E1],"tree_param":{"num_deleted":"0","num_feature":"17","num_nodes":"23","size_leaf_vector":"1"}},{"base_weights":[-6.2222272E-2,-1.1220815E0,8.615435E-1,-1.3740603E0,-4.0449792E-1,8.693523E-3,1.2683936E0,-1.4299866E0,-1.0971956E-2,1.9597918E-2,-8.309416E-1,-6.1702687E-1,6.598146E-1,2.7261464E-2,-0E0,-2.9888848E-2,-1.1498249E-2,-4.71783E-3,-2.0876922E-2,-2.2267684E-2,-4.8997444E-3,1.7878918E-2,-0E0],"categories":[],"categories_nodes":[],"categories_segments":[],"categories_sizes":[],"default_left":[0,0,0,0,0,0,0,0,0,0,0,0,0,0,0,0,0,0,0,0,0,0,0],"id":12,"left_children":[1,3,5,7,9,11,13,15,-1,-1,17,19,21,-1,-1,-1,-1,-1,-1,-1,-1,-1,-1],"loss_changes":[1.9102261E2,1.4453346E1,3.5425552E1,4.8862457E-1,1.7493876E1,1.5502751E1,8.150391E0,5.538559E-1,0E0,0E0,1.6548176E0,2.2839131E0,2.9161968E0,0E0,0E0,0E0,0E0,0E0,0E0,0E0,0E0,0E0,0E0],"parents":[2147483647,0,0,1,1,2,2,3,3,4,4,5,5,6,6,7,7,10,10,11,11,12,12],"right_children":[2,4,6,8,10,12,14,16,-1,-1,18,20,22,-1,-1,-1,-1,-1,-1,-1,-1,-1,-1],"split_conditions":[3.973847E-2,-6.0513186E0,2.1221226E-1,4.969745E0,-6.045939E0,-6.0503564E0,7.1340346E-1,1.2809391E-1,-1.0971956E-2,1.9597918E-2,4.969449E0,8.750279E-2,1.5896912E-1,2.7261464E-2,-0E0,-2.9888848E-2,-1.1498249E-2,-4.71783E-3,-2.0876922E-2,-2.2267684E-2,-4.8997444E-3,1.7878918E-2,-0E0],"split_indices":[4,0,7,1,0,0,14,10,0,0,1,5,6,0,0,0,0,0,0,0,0,0,0],"split_type":[0,0,0,0,0,0,0,0,0,0,0,0,0,0,0,0,0,0,0,0,0,0,0],"sum_hessian":[1.91E2,8.9E1,1.02E2,6.4E1,2.5E1,3.4E1,6.8E1,5.8E1,6E0,5E0,2E1,1.7E1,1.7E1,6.3E1,5E0,5.2E1,6E0,7E0,1.3E1,5E0,1.2E1,1.2E1,5E0],"tree_param":{"num_deleted":"0","num_feature":"17","num_nodes":"23","size_leaf_vector":"1"}},{"base_weights":[6.426248E-2,-1.0901252E0,9.307999E-1,-1.4813261E0,-1.9802868E-1,1.6723159E-1,1.3328097E0,-3.07886E-2,-1.1100648E-2,-6.3990307E-1,2.4779908E-2,-5.2294874E-1,8.9816034E-1,1.410357E0,8.420207E-3,-4.8843743E-3,-1.8404879E-2,-1.6209077E-2,3.3763621E-4,2.3709522E-3,2.1914417E-2,1.9332558E-2,3.1336706E-2],"categories":[],"categories_nodes":[],"categories_segments":[],"categories_sizes":[],"default_left":[0,0,0,0,0,0,0,0,0,0,0,0,0,0,0,0,0,0,0,0,0,0,0],"id":13,"left_children":[1,3,5,7,9,11,13,-1,-1,15,-1,17,19,21,-1,-1,-1,-1,-1,-1,-1,-1,-1],"loss_changes":[1.9401118E2,2.7539719E1,3.2876976E1,3.1171417E-1,1.9065685E1,2.1810368E1,2.987709E0,0E0,0E0,1.519597E0,0E0,3.8386407E0,2.3675117E0,2.1739197E-1,0E0,0E0,0E0,0E0,0E0,0E0,0E0,0E0,0E0],"parents":[2147483647,0,0,1,1,2,2,3,3,4,4,5,5,6,6,9,9,11,11,12,12,13,13],"right_children":[2,4,6,8,10,12,14,-1,-1,16,-1,18,20,22,-1,-1,-1,-1,-1,-1,-1,-1,-1],"split_conditions":[3.973847E-2,-6.0513186E0,2.071311E-1,4.969745E0,-7.540524E0,-6.0503564E0,4.1272908E-1,-3.07886E-2,-1.1100648E-2,4.969952E0,2.4779908E-2,5.6208186E-2,-1.5177566E1,-8.329487E0,8.420207E-3,-4.8843743E-3,-1.8404879E-2,-1.6209077E-2,3.3763621E-4,2.3709522E-3,2.1914417E-2,1.9332558E-2,3.1336706E-2],"split_indices":[4,0,8,1,12,0,16,0,0,1,0,3,13,12,0,0,0,0,0,0,0,0,0],"split_type":[0,0,0,0,0,0,0,0,0,0,0,0,0,0,0,0,0,0,0,0,0,0,0],"sum_hessian":[1.9E2,8.1E1,1.09E2,5.5E1,2.6E1,3.9E1,7E1,5E1,5E0,2.1E1,5E0,2E1,1.9E1,6.3E1,7E0,1.1E1,1E1,1.3E1,7E0,5E0,1.4E1,2.1E1,4.2E1],"tree_param":{"num_deleted":"0","num_feature":"17","num_nodes":"23","size_leaf_vector":"1"}},{"base_weights":[-4.5035567E-2,-1.1033603E0,8.847614E-1,-1.3463943E0,-4.511851E-1,-2.2200152E-2,1.015626E0,-2.7968407E-2,-9.035541E-3,1.0399829E-2,-7.292662E-1,5.9800607E-1,2.9210394E-2,-5.043702E-3,-1.8335028E-2,1.8611189E-2,1.3936714E-4],"categories":[],"categories_nodes":[],"categories_segments":[],"categories_sizes":[],"default_left":[0,0,0,0,0,0,0,0,0,0,0,0,0,0,0,0,0],"id":14,"left_children":[1,3,5,7,9,-1,11,-1,-1,-1,13,15,-1,-1,-1,-1,-1],"loss_changes":[1.8902686E2,1.2151344E1,2.883406E1,7.901306E-1,8.424906E0,0E0,1.5246193E1,0E0,0E0,0E0,1.0103989E0,1.0132055E1,0E0,0E0,0E0,0E0,0E0],"parents":[2147483647,0,0,1,1,2,2,3,3,4,4,6,6,10,10,11,11],"right_children":[2,4,6,8,10,-1,12,-1,-1,-1,14,16,-1,-1,-1,-1,-1],"split_conditions":[3.9618228E-2,-6.051875E0,1.5009847E-1,4.9706516E0,-6.045939E0,-2.2200152E-2,-6.0475364E0,-2.7968407E-2,-9.035541E-3,1.0399829E-2,4.9695745E0,-6.0590034E0,2.9210394E-2,-5.043702E-3,-1.8335028E-2,1.8611189E-2,1.3936714E-4],"split_indices":[4,0,8,1,0,0,0,0,0,0,1,0,0,0,0,0,0],"split_type":[0,0,0,0,0,0,0,0,0,0,0,0,0,0,0,0,0],"sum_hessian":[1.88E2,8.8E1,1E2,6.2E1,2.6E1,5E0,9.5E1,5.7E1,5E0,5E0,2.1E1,5.2E1,4.3E1,8E0,1.3E1,3.2E1,2E1],"tree_param":{"num_deleted":"0","num_feature":"17","num_nodes":"17","size_leaf_vector":"1"}},{"base_weights":[1.5045275E-3,-1.0554284E0,9.1218024E-1,-1.172319E0,1.1881632E-2,1.4163052E-1,1.337518E0,-2.6976954E-2,-5.904046E-1,-5.8931214E-1,7.5487614E-1,2.804111E-2,6.2464615E-3,-1.8397683E-2,2.1518192E-3,-2.496254E-2,-2.8000583E-3,1.9951917E-2,-2.7021408E-4],"categories":[],"categories_nodes":[],"categories_segments":[],"categories_sizes":[],"default_left":[0,0,0,0,0,0,0,0,0,0,0,0,0,0,0,0,0,0,0],"id":15,"left_children":[1,3,5,7,-1,9,11,-1,13,15,17,-1,-1,-1,-1,-1,-1,-1,-1],"loss_changes":[1.8762082E2,1.9035133E1,3.329467E1,6.169235E0,0E0,1.8902393E1,2.6999817E0,0E0,6.123495E0,4.5806723E0,4.8085585E0,0E0,0E0,0E0,0E0,0E0,0E0,0E0,0E0],"parents":[2147483647,0,0,1,1,2,2,3,3,5,5,6,6,8,8,9,9,10,10],"right_children":[2,4,6,8,-1,10,12,-1,14,16,18,-1,-1,-1,-1,-1,-1,-1,-1],"split_conditions":[3.973847E-2,3.0924723E-1,2.071311E-1,-6.0517626E0,1.1881632E-2,-6.0510874E0,4.1272908E-1,-2.6976954E-2,9.299182E-2,5.5655E-2,2.1952398E-1,2.804111E-2,6.2464615E-3,-1.8397683E-2,2.1518192E-3,-2.496254E-2,-2.8000583E-3,1.9951917E-2,-2.7021408E-4],"split_indices":[4,9,8,0,0,0,16,0,5,11,9,0,0,0,0,0,0,0,0],"split_type":[0,0,0,0,0,0,0,0,0,0,0,0,0,0,0,0,0,0,0],"sum_hessian":[1.91E2,8.8E1,1.03E2,8.3E1,5E0,3.8E1,6.5E1,6.1E1,2.2E1,1.7E1,2.1E1,6E1,5E0,1.5E1,7E0,5E0,1.2E1,1.6E1,5E0],"tree_param":{"num_deleted":"0","num_feature":"17","num_nodes":"19","size_leaf_vector":"1"}},{"base_weights":[-1.2054989E-2,-9.8153883E-1,6.684438E-1,-1.16867E0,9.119493E-3,7.845771E-2,1.1758986E0,1.238392E-2,-1.3355095E0,-8.81621E-1,4.1465738E-1,6.612516E-1,2.8795596E-2,-2.7955804E-2,-7.151391E-3,-2.4158634E-2,-5.4481006E-3,1.4435485E-2,-6.0378236E-4,2.7183967E-3,1.51774725E-2],"categories":[],"categories_nodes":[],"categories_segments":[],"categories_sizes":[],"default_left":[0,0,0,0,0,0,0,0,0,0,0,0,0,0,0,0,0,0,0,0,0],"id":16,"left_children":[1,3,5,7,-1,9,11,-1,13,15,17,19,-1,-1,-1,-1,-1,-1,-1,-1,-1],"loss_changes":[1.2285954E2,2.2135406E1,3.1821945E1,2.2593811E1,0E0,1.76049E1,4.922104E0,0E0,2.020729E0,1.3848495E0,5.9907875E0,5.771265E-1,0E0,0E0,0E0,0E0,0E0,0E0,0E0,0E0,0E0],"parents":[2147483647,0,0,1,1,2,2,3,3,5,5,6,6,8,8,9,9,10,10,11,11],"right_children":[2,4,6,8,-1,10,12,-1,14,16,18,20,-1,-1,-1,-1,-1,-1,-1,-1,-1],"split_conditions":[5.9059102E-2,-6.047725E0,5.8499705E-2,-6.0604415E0,9.119493E-3,-6.0566635E0,-8.329487E0,1.238392E-2,4.9702826E0,4.967376E0,4.968986E0,-5.669686E-1,2.8795596E-2,-2.7955804E-2,-7.151391E-3,-2.4158634E-2,-5.4481006E-3,1.4435485E-2,-6.0378236E-4,2.7183967E-3,1.51774725E-2],"split_indices":[11,0,3,0,0,0,12,0,1,1,1,15,0,0,0,0,0,0,0,0,0],"split_type":[0,0,0,0,0,0,0,0,0,0,0,0,0,0,0,0,0,0,0,0,0],"sum_hessian":[1.82E2,7.5E1,1.07E2,6.7E1,8E0,5.1E1,5.6E1,5E0,6.2E1,1.2E1,3.9E1,2.2E1,3.4E1,5.7E1,5E0,6E0,6E0,2.3E1,1.6E1,5E0,1.7E1],"tree_param":{"num_deleted":"0","num_feature":"17","num_nodes":"21","size_leaf_vector":"1"}},{"base_weights":[4.8777252E-2,-9.9640626E-1,8.363912E-1,-1.1064824E0,8.239305E-3,3.5220286E-1,2.9256202E-2,-1.2085873E0,-3.1882492E-1,-3.2680413E-1,9.1236407E-1,-2.5633194E-2,-1.2489693E-2,-0E0,-1.1626427E-2,-2.2394115E-2,8.117582E-4,2.0183079E-2,3.0323805E-3],"categories":[],"categories_nodes":[],"categories_segments":[],"categories_sizes":[],"default_left":[0,0,0,0,0,0,0,0,0,0,0,0,0,0,0,0,0,0,0],"id":17,"left_children":[1,3,5,7,-1,9,-1,11,13,15,17,-1,-1,-1,-1,-1,-1,-1,-1],"loss_changes":[1.5552536E2,1.3816208E1,3.0818993E1,4.5778427E0,0E0,2.5231724E1,0E0,2.6317596E-1,1.1457496E0,9.369626E0,1.764368E0,0E0,0E0,0E0,0E0,0E0,0E0,0E0,0E0],"parents":[2147483647,0,0,1,1,2,2,3,3,5,5,7,7,8,8,9,9,10,10],"right_children":[2,4,6,8,-1,10,-1,12,14,16,18,-1,-1,-1,-1,-1,-1,-1,-1],"split_conditions":[3.973847E-2,2.7991983E-1,-6.0473394E0,1.31947E-1,8.239305E-3,2.0358984E-1,2.9256202E-2,-6.039777E0,3.6591116E-2,-1.6075993E1,4.0488014E-1,-2.5633194E-2,-1.2489693E-2,-0E0,-1.1626427E-2,-2.2394115E-2,8.117582E-4,2.0183079E-2,3.0323805E-3],"split_indices":[4,8,0,10,0,8,0,0,4,13,16,0,0,0,0,0,0,0,0],"split_type":[0,0,0,0,0,0,0,0,0,0,0,0,0,0,0,0,0,0,0],"sum_hessian":[1.85E2,7.9E1,1.06E2,7.4E1,5E0,6.2E1,4.4E1,6.4E1,1E1,2.8E1,3.4E1,5.4E1,1E1,5E0,5E0,8E0,2E1,2.9E1,5E0],"tree_param":{"num_deleted":"0","num_feature":"17","num_nodes":"19","size_leaf_vector":"1"}},{"base_weights":[-9.995811E-2,-1.052283E0,8.0174977E-1,-1.2170173E0,-4.0902665E-1,-3.900806E-1,1.0271335E0,-2.6521662E-2,-6.659039E-1,4.230231E-3,-1.4764021E-2,-9.166139E-1,1.1051418E-2,5.378819E-1,2.8540136E-2,-2.3152348E-2,-0E0,-2.5871024E-2,-4.127167E-3,-1.7992302E-3,2.0741891E-2],"categories":[],"categories_nodes":[],"categories_segments":[],"categories_sizes":[],"default_left":[0,0,0,0,0,0,0,0,0,0,0,0,0,0,0,0,0,0,0,0,0],"id":18,"left_children":[1,3,5,7,9,11,13,-1,15,-1,-1,17,-1,19,-1,-1,-1,-1,-1,-1,-1],"loss_changes":[1.6754533E2,8.258194E0,2.7981773E1,1.6858902E0,5.273723E0,9.632746E0,1.4111717E1,0E0,5.8625054E0,0E0,0E0,1.9288359E0,0E0,1.3824115E1,0E0,0E0,0E0,0E0,0E0,0E0,0E0],"parents":[2147483647,0,0,1,1,2,2,3,3,4,4,5,5,6,6,8,8,11,11,13,13],"right_children":[2,4,6,8,10,12,14,-1,16,-1,-1,18,-1,20,-1,-1,-1,-1,-1,-1,-1],"split_conditions":[3.973847E-2,1.2673768E-1,-1.57593565E1,-6.051875E0,3.5200592E-2,1.8005681E-1,-6.0486045E0,-2.6521662E-2,5.0811186E-2,4.230231E-3,-1.4764021E-2,5.407719E-2,1.1051418E-2,6.331918E-2,2.8540136E-2,-2.3152348E-2,-0E0,-2.5871024E-2,-4.127167E-3,-1.7992302E-3,2.0741891E-2],"split_indices":[4,10,13,0,4,6,0,0,3,0,0,3,0,3,0,0,0,0,0,0,0],"split_type":[0,0,0,0,0,0,0,0,0,0,0,0,0,0,0,0,0,0,0,0,0],"sum_hessian":[1.91E2,9.3E1,9.8E1,7.2E1,2.1E1,1.5E1,8.3E1,5.7E1,1.5E1,7E0,1.4E1,1E1,5E0,4E1,4.3E1,8E0,7E0,5E0,5E0,1.8E1,2.2E1],"tree_param":{"num_deleted":"0","num_feature":"17","num_nodes":"21","size_leaf_vector":"1"}},{"base_weights":[1.4946742E-2,-9.7858673E-1,8.888088E-1,-1.0600421E0,4.606368E-3,-2.1084434E-1,1.1142776E0,-1.3111126E0,-5.138773E-1,-8.62906E-1,1.2997398E-2,6.060682E-1,2.6056472E-2,-1.9194683E-2,-3.1772617E-2,1.0771934E-2,-1.5538748E-2,-2.4814287E-2,-3.342487E-3,-4.774865E-3,1.6644446E-2],"categories":[],"categories_nodes":[],"categories_segments":[],"categories_sizes":[],"default_left":[0,0,0,0,0,0,0,0,0,0,0,0,0,0,0,0,0,0,0,0,0],"id":19,"left_children":[1,3,5,7,-1,9,11,13,15,17,-1,19,-1,-1,-1,-1,-1,-1,-1,-1,-1],"loss_changes":[1.692594E2,9.864098E0,2.67071E1,9.532829E0,0E0,1.1891608E1,5.802765E0,1.234787E0,9.538865E0,2.03584E0,0E0,6.043726E0,0E0,0E0,0E0,0E0,0E0,0E0,0E0,0E0,0E0],"parents":[2147483647,0,0,1,1,2,2,3,3,5,5,6,6,7,7,8,8,9,9,11,11],"right_children":[2,4,6,8,-1,10,12,14,16,18,-1,20,-1,-1,-1,-1,-1,-1,-1,-1,-1],"split_conditions":[4.1472092E-2,2.8498772E-1,-1.5833433E1,5.8544755E-2,4.606368E-3,9.555864E-2,-1.4839902E1,9.601812E-2,3.464945E-2,-9.410928E0,1.2997398E-2,4.4024196E-2,2.6056472E-2,-1.9194683E-2,-3.1772617E-2,1.0771934E-2,-1.5538748E-2,-2.4814287E-2,-3.342487E-3,-4.774865E-3,1.6644446E-2],"split_indices":[4,7,13,11,0,5,13,5,4,12,0,4,0,0,0,0,0,0,0,0,0],"split_type":[0,0,0,0,0,0,0,0,0,0,0,0,0,0,0,0,0,0,0,0,0],"sum_hessian":[1.91E2,8.9E1,1.02E2,8.4E1,5E0,1.7E1,8.5E1,5.5E1,2.9E1,1E1,7E0,2.6E1,5.9E1,2.9E1,2.6E1,5E0,2.4E1,5E0,5E0,5E0,2.1E1],"tree_param":{"num_deleted":"0","num_feature":"17","num_nodes":"21","size_leaf_vector":"1"}},{"base_weights":[3.1327527E-2,-9.546697E-1,8.3137435E-1,-1.0683587E0,1.1893817E-2,2.2306387E-1,1.156774E0,-1.2644824E0,-3.4509033E-1,-4.918092E-1,6.9255286E-1,1.2251734E0,2.3940466E-3,-1.751678E-2,-2.9744618E-2,7.1909917E-3,-1.4164392E-2,-1.9377012E-2,1.8394438E-3,1.8977534E-2,2.5008556E-3,1.4887385E-2,2.7339948E-2],"categories":[],"categories_nodes":[],"categories_segments":[],"categories_sizes":[],"default_left":[0,0,0,0,0,0,0,0,0,0,0,0,0,0,0,0,0,0,0,0,0,0,0],"id":20,"left_children":[1,3,5,7,-1,9,11,13,15,17,19,21,-1,-1,-1,-1,-1,-1,-1,-1,-1,-1,-1],"loss_changes":[1.5535031E2,1.7008293E1,2.0369911E1,1.0096054E1,0E0,1.4542207E1,3.9997025E0,1.7537766E0,6.0569973E0,5.3509483E0,3.007866E0,1.3415375E0,0E0,0E0,0E0,0E0,0E0,0E0,0E0,0E0,0E0,0E0,0E0],"parents":[2147483647,0,0,1,1,2,2,3,3,5,5,6,6,7,7,8,8,9,9,10,10,11,11],"right_children":[2,4,6,8,-1,10,12,14,16,18,20,22,-1,-1,-1,-1,-1,-1,-1,-1,-1,-1,-1],"split_conditions":[3.973847E-2,3.0924723E-1,2.0820323E-1,1.2673768E-1,1.1893817E-2,-1.5413524E1,7.145428E-1,9.517155E-2,3.164801E-2,-9.116769E0,2.0125324E-1,-8.329487E0,2.3940466E-3,-1.751678E-2,-2.9744618E-2,7.1909917E-3,-1.4164392E-2,-1.9377012E-2,1.8394438E-3,1.8977534E-2,2.5008556E-3,1.4887385E-2,2.7339948E-2],"split_indices":[4,9,8,10,0,13,14,5,2,12,9,12,0,0,0,0,0,0,0,0,0,0,0],"split_type":[0,0,0,0,0,0,0,0,0,0,0,0,0,0,0,0,0,0,0,0,0,0,0],"sum_hessian":[1.93E2,8.6E1,1.07E2,8.1E1,5E0,3.9E1,6.8E1,6.2E1,1.9E1,1.5E1,2.4E1,6.3E1,5E0,2.7E1,3.5E1,6E0,1.3E1,8E0,7E0,1.5E1,9E0,1.8E1,4.5E1],"tree_param":{"num_deleted":"0","num_feature":"17","num_nodes":"23","size_leaf_vector":"1"}},{"base_weights":[-2.2403182E-2,-9.0026367E-1,7.292668E-1,-1.1908456E0,-2.1973117E-1,-0E0,1.0691085E0,-2.5052825E-2,-8.270263E-3,2.3830593E-2,-6.338713E-1,-7.0199573E-1,6.957435E-1,8.882413E-3,2.2566322E-2,-2.1641282E-3,-1.9163478E-2,-2.171377E-2,-4.296658E-4,2.3350795E-3,1.9950178E-2],"categories":[],"categories_nodes":[],"categories_segments":[],"categories_sizes":[],"default_left":[0,0,0,0,0,0,0,0,0,0,0,0,0,0,0,0,0,0,0,0,0],"id":21,"left_children":[1,3,5,7,9,11,13,-1,-1,-1,15,17,19,-1,-1,-1,-1,-1,-1,-1,-1],"loss_changes":[1.2413278E2,1.597567E1,2.5151684E1,1.013092E0,1.8181059E1,1.7583427E1,7.648392E-1,0E0,0E0,0E0,3.3508368E0,4.0997047E0,2.3548841E0,0E0,0E0,0E0,0E0,0E0,0E0,0E0,0E0],"parents":[2147483647,0,0,1,1,2,2,3,3,4,4,5,5,6,6,10,10,11,11,12,12],"right_children":[2,4,6,8,10,12,14,-1,-1,-1,16,18,20,-1,-1,-1,-1,-1,-1,-1,-1],"split_conditions":[3.9618228E-2,-6.047725E0,1.8274325E-1,1.2809391E-1,-6.045939E0,-6.0503564E0,4.31569E-2,-2.5052825E-2,-8.270263E-3,2.3830593E-2,4.969952E0,4.9075887E-2,-6.0473394E0,8.882413E-3,2.2566322E-2,-2.1641282E-3,-1.9163478E-2,-2.171377E-2,-4.296658E-4,2.3350795E-3,1.9950178E-2],"split_indices":[4,0,6,10,0,0,4,0,0,0,1,4,0,0,0,0,0,0,0,0,0],"split_type":[0,0,0,0,0,0,0,0,0,0,0,0,0,0,0,0,0,0,0,0,0],"sum_hessian":[1.84E2,8.5E1,9.9E1,5.8E1,2.7E1,3.2E1,6.7E1,5.2E1,6E0,5E0,2.2E1,1.6E1,1.6E1,8E0,5.9E1,1E1,1.2E1,9E0,7E0,7E0,9E0],"tree_param":{"num_deleted":"0","num_feature":"17","num_nodes":"21","size_leaf_vector":"1"}},{"base_weights":[-1.6101307E-3,-9.88033E-1,7.6705664E-1,-1.1522772E0,-4.4003558E-1,-2.2778663E-1,9.829E-1,-8.2934576E-1,-2.7049055E-2,7.0314095E-3,-7.7074546E-1,-7.556789E-1,9.080612E-3,2.8133884E-1,1.1277516E0,-1.9606603E-2,-1.7536556E-3,-4.527726E-3,-1.9270545E-2,-2.4119567E-2,-0E0,1.3504164E-2,-3.1637042E-3,2.6848316E-3,2.3754762E-2],"categories":[],"categories_nodes":[],"categories_segments":[],"categories_sizes":[],"default_left":[0,0,0,0,0,0,0,0,0,0,0,0,0,0,0,0,0,0,0,0,0,0,0,0,0],"id":22,"left_children":[1,3,5,7,9,11,13,15,-1,-1,17,19,-1,21,23,-1,-1,-1,-1,-1,-1,-1,-1,-1,-1],"loss_changes":[1.5023943E2,6.020218E0,2.4660408E1,8.6759186E-1,7.034537E0,8.395474E0,8.010132E0,2.7654438E0,0E0,0E0,8.5774994E-1,4.2114124E0,0E0,3.7613134E0,3.4899216E0,0E0,0E0,0E0,0E0,0E0,0E0,0E0,0E0,0E0,0E0],"parents":[2147483647,0,0,1,1,2,2,3,3,4,4,5,5,6,6,7,7,10,10,11,11,13,13,14,14],"right_children":[2,4,6,8,10,12,14,16,-1,-1,18,20,-1,22,24,-1,-1,-1,-1,-1,-1,-1,-1,-1,-1],"split_conditions":[3.973847E-2,1.2673768E-1,-1.57593565E1,-1.422475E1,3.164801E-2,9.555864E-2,4.4024196E-2,1.1893668E-1,-2.7049055E-2,7.0314095E-3,3.563695E-2,-9.116769E0,9.080612E-3,3.5996955E-2,8.629847E-2,-1.9606603E-2,-1.7536556E-3,-4.527726E-3,-1.9270545E-2,-2.4119567E-2,-0E0,1.3504164E-2,-3.1637042E-3,2.6848316E-3,2.3754762E-2],"split_indices":[4,10,13,13,2,5,4,10,0,0,4,12,0,2,5,0,0,0,0,0,0,0,0,0,0],"split_type":[0,0,0,0,0,0,0,0,0,0,0,0,0,0,0,0,0,0,0,0,0,0,0,0,0],"sum_hessian":[1.94E2,8.5E1,1.09E2,6.3E1,2.2E1,1.9E1,9E1,2.9E1,3.4E1,6E0,1.6E1,1.1E1,8E0,1.7E1,7.3E1,2.3E1,6E0,6E0,1E1,6E0,5E0,9E0,8E0,5E0,6.8E1],"tree_param":{"num_deleted":"0","num_feature":"17","num_nodes":"25","size_leaf_vector":"1"}},{"base_weights":[-1.5679982E-2,-9.553462E-1,7.790956E-1,-1.1681573E0,-2.800724E-1,3.7381455E-1,2.4323268E-2,-8.59791E-1,-2.6810858E-2,-6.2912095E-1,1.4516026E-2,-0E0,1.8900093E-2,-1.904235E-2,-5.876456E-3,-3.295438E-3,-1.4572021E-2,-1.7665094E-2,3.9410507E-3],"categories":[],"categories_nodes":[],"categories_segments":[],"categories_sizes":[],"default_left":[0,0,0,0,0,0,0,0,0,0,0,0,0,0,0,0,0,0,0],"id":23,"left_children":[1,3,5,7,9,11,-1,13,-1,15,-1,17,-1,-1,-1,-1,-1,-1,-1],"loss_changes":[1.479542E2,1.1698769E1,1.7249245E1,2.0940399E-1,9.642362E0,1.2295278E1,0E0,4.373951E-1,0E0,2.3707676E-1,0E0,6.7423525E0,0E0,0E0,0E0,0E0,0E0,0E0,0E0],"parents":[2147483647,0,0,1,1,2,2,3,3,4,4,5,5,7,7,9,9,11,11],"right_children":[2,4,6,8,10,12,-1,14,-1,16,-1,18,-1,-1,-1,-1,-1,-1,-1],"split_conditions":[3.973847E-2,-6.047725E0,-6.0485334E0,-1.4405921E1,-7.3912334E0,6.9503225E-2,2.4323268E-2,-6.6956263E0,-2.6810858E-2,-8.937281E0,1.4516026E-2,-1.6734913E1,1.8900093E-2,-1.904235E-2,-5.876456E-3,-3.295438E-3,-1.4572021E-2,-1.7665094E-2,3.9410507E-3],"split_indices":[4,0,0,13,12,3,0,12,0,12,0,13,0,0,0,0,0,0,0],"split_type":[0,0,0,0,0,0,0,0,0,0,0,0,0,0,0,0,0,0,0],"sum_hessian":[1.94E2,8.9E1,1.05E2,6.6E1,2.3E1,5.7E1,4.8E1,2.9E1,3.7E1,1.8E1,5E0,3.6E1,2.1E1,2.3E1,6E0,5E0,1.3E1,5E0,3.1E1],"tree_param":{"num_deleted":"0","num_feature":"17","num_nodes":"19","size_leaf_vector":"1"}},{"base_weights":[8.5922375E-2,-8.3084744E-1,9.6137476E-1,-1.0876102E0,-1.2768006E-1,-1.2170577E-3,1.0540013E0,-1.1371592E0,-4.765196E-3,1.8005494E-2,-4.9586606E-1,7.615693E-1,2.495135E-2,-1.17171155E-2,-2.457427E-2,-2.1508185E-3,-1.4791429E-2,1.9698497E-2,7.79273E-4],"categories":[],"categories_nodes":[],"categories_segments":[],"categories_sizes":[],"default_left":[0,0,0,0,0,0,0,0,0,0,0,0,0,0,0,0,0,0,0],"id":24,"left_children":[1,3,5,7,9,-1,11,13,-1,-1,15,17,-1,-1,-1,-1,-1,-1,-1],"loss_changes":[1.6137787E2,1.6808243E1,1.0377449E1,1.7584152E0,1.1666505E1,0E0,2.4726868E0,9.8430634E-1,0E0,0E0,1.5940247E0,6.5128155E0,0E0,0E0,0E0,0E0,0E0,0E0,0E0],"parents":[2147483647,0,0,1,1,2,2,3,3,4,4,6,6,7,7,10,10,11,11],"right_children":[2,4,6,8,10,-1,12,14,-1,-1,16,18,-1,-1,-1,-1,-1,-1,-1],"split_conditions":[4.09118E-2,-6.0513186E0,1.5721689E-1,4.970128E0,-6.7567843E-1,-1.2170577E-3,-6.0485334E0,-1.4901008E1,-4.765196E-3,1.8005494E-2,4.969931E0,-6.0590034E0,2.495135E-2,-1.17171155E-2,-2.457427E-2,-2.1508185E-3,-1.4791429E-2,1.9698497E-2,7.79273E-4],"split_indices":[4,0,8,1,15,0,0,13,0,0,1,0,0,0,0,0,0,0,0],"split_type":[0,0,0,0,0,0,0,0,0,0,0,0,0,0,0,0,0,0,0],"sum_hessian":[1.97E2,9.6E1,1.01E2,6.9E1,2.7E1,8E0,9.3E1,6.4E1,5E0,6E0,2.1E1,4.2E1,5.1E1,1.2E1,5.2E1,1E1,1.1E1,3.1E1,1.1E1],"tree_param":{"num_deleted":"0","num_feature":"17","num_nodes":"19","size_leaf_vector":"1"}},{"base_weights":[-3.2319263E-2,-8.057229E-1,8.456375E-1,-1.0857191E0,6.506028E-2,-3.1911063E-1,1.0015607E0,2.181327E-3,-1.1749467E0,1.7554963E-2,-4.8684418E-1,-1.6830176E-2,4.4606687E-3,2.3244475E-3,1.0495379E0,-2.4272854E-2,-7.6171653E-3,-1.18224835E-2,-1.9510309E-3,1.2346972E-2,2.4479235E-2],"categories":[],"categories_nodes":[],"categories_segments":[],"categories_sizes":[],"default_left":[0,0,0,0,0,0,0,0,0,0,0,0,0,0,0,0,0,0,0,0,0],"id":25,"left_children":[1,3,5,7,9,11,13,-1,15,-1,17,-1,-1,-1,19,-1,-1,-1,-1,-1,-1],"loss_changes":[1.3375066E2,2.6252289E1,1.7688683E1,9.317848E0,1.316031E1,4.0831876E0,2.6561966E0,0E0,5.8290863E-1,0E0,2.3045444E-1,0E0,0E0,0E0,3.372696E0,0E0,0E0,0E0,0E0,0E0,0E0],"parents":[2147483647,0,0,1,1,2,2,3,3,4,4,5,5,6,6,8,8,10,10,14,14],"right_children":[2,4,6,8,10,12,14,-1,16,-1,18,-1,-1,-1,20,-1,-1,-1,-1,-1,-1],"split_conditions":[4.4024196E-2,-6.0513186E0,1.5721689E-1,-6.0604415E0,-6.040831E0,-1.6734913E1,8.629847E-2,2.181327E-3,1.2809391E-1,1.7554963E-2,-8.356512E0,-1.6830176E-2,4.4606687E-3,2.3244475E-3,-8.335557E0,-2.4272854E-2,-7.6171653E-3,-1.18224835E-2,-1.9510309E-3,1.2346972E-2,2.4479235E-2],"split_indices":[4,0,8,0,0,13,5,0,10,0,12,0,0,0,12,0,0,0,0,0,0],"split_type":[0,0,0,0,0,0,0,0,0,0,0,0,0,0,0,0,0,0,0,0,0],"sum_hessian":[1.93E2,1.03E2,9E1,7.8E1,2.5E1,1E1,8E1,5E0,7.3E1,1E1,1.5E1,5E0,5E0,5E0,7.5E1,6.8E1,5E0,1E1,5E0,2.5E1,5E1],"tree_param":{"num_deleted":"0","num_feature":"17","num_nodes":"21","size_leaf_vector":"1"}},{"base_weights":[-4.5767505E-2,-9.145564E-1,6.619218E-1,-1.0152346E0,5.167291E-3,3.0703917E-2,9.971226E-1,-1.0991076E0,-4.27103E-1,-5.853977E-1,5.8272773E-1,1.0718545E0,-0E0,-2.3509605E-2,-1.0102439E-2,-0E0,-1.2867589E-2,-2.3735864E-2,-3.3071493E-3,1.6786965E-2,-2.739048E-4,2.2734731E-2,9.01263E-3],"categories":[],"categories_nodes":[],"categories_segments":[],"categories_sizes":[],"default_left":[0,0,0,0,0,0,0,0,0,0,0,0,0,0,0,0,0,0,0,0,0,0,0],"id":26,"left_children":[1,3,5,7,-1,9,11,13,15,17,19,21,-1,-1,-1,-1,-1,-1,-1,-1,-1,-1,-1],"loss_changes":[1.17540405E2,1.1058571E1,2.1641254E1,2.2443008E0,0E0,1.3944929E1,4.7696915E0,1.0569458E0,1.1715963E0,3.7310295E0,3.803012E0,7.211151E-1,0E0,0E0,0E0,0E0,0E0,0E0,0E0,0E0,0E0,0E0,0E0],"parents":[2147483647,0,0,1,1,2,2,3,3,5,5,6,6,7,7,8,8,9,9,10,10,11,11],"right_children":[2,4,6,8,-1,10,12,14,16,18,20,22,-1,-1,-1,-1,-1,-1,-1,-1,-1,-1,-1],"split_conditions":[3.973847E-2,2.7991983E-1,2.0820323E-1,-6.039777E0,5.167291E-3,-6.0510874E0,7.145428E-1,4.9700203E0,2.283752E-1,-9.410928E0,1.8694577E-1,8.933144E-2,-0E0,-2.3509605E-2,-1.0102439E-2,-0E0,-1.2867589E-2,-2.3735864E-2,-3.3071493E-3,1.6786965E-2,-2.739048E-4,2.2734731E-2,9.01263E-3],"split_indices":[4,8,8,0,0,0,14,1,7,12,7,11,0,0,0,0,0,0,0,0,0,0,0],"split_type":[0,0,0,0,0,0,0,0,0,0,0,0,0,0,0,0,0,0,0,0,0,0,0],"sum_hessian":[1.87E2,8.4E1,1.03E2,7.8E1,6E0,3.7E1,6.6E1,6.6E1,1.2E1,1.7E1,2E1,6.1E1,5E0,5.6E1,1E1,5E0,7E0,5E0,1.2E1,1.4E1,6E0,5.3E1,8E0],"tree_param":{"num_deleted":"0","num_feature":"17","num_nodes":"23","size_leaf_vector":"1"}},{"base_weights":[5.3918045E-2,-7.470037E-1,6.7561346E-1,-8.481919E-1,1.1896012E-2,-2.1316576E-1,8.8626605E-1,-9.960555E-1,-4.492115E-1,-2.278221E-2,1.4283118E-1,9.7277975E-1,-7.6624975E-3,-3.9149756E-3,-2.1425087E-2,3.918902E-3,-1.535596E-2,-4.0905583E-3,1.023248E-2,7.3080454E-3,2.2017457E-2],"categories":[],"categories_nodes":[],"categories_segments":[],"categories_sizes":[],"default_left":[0,0,0,0,0,0,0,0,0,0,0,0,0,0,0,0,0,0,0,0,0],"id":27,"left_children":[1,3,5,7,-1,9,11,13,15,-1,17,19,-1,-1,-1,-1,-1,-1,-1,-1,-1],"loss_changes":[1.0055955E2,1.3083889E1,2.2057896E1,3.279045E0,0E0,8.405111E0,1.1253456E1,2.4376678E0,6.136349E0,0E0,2.668695E0,5.308815E0,0E0,0E0,0E0,0E0,0E0,0E0,0E0,0E0,0E0],"parents":[2147483647,0,0,1,1,2,2,3,3,5,5,6,6,7,7,8,8,10,10,11,11],"right_children":[2,4,6,8,-1,10,12,14,16,-1,18,20,-1,-1,-1,-1,-1,-1,-1,-1,-1],"split_conditions":[3.469983E-2,2.8592646E-1,-1.57593565E1,5.8544755E-2,1.1896012E-2,1.1308299E-1,7.197225E-1,-1.4995023E1,3.164801E-2,-2.278221E-2,1.5931883E-1,4.9672556E0,-7.6624975E-3,-3.9149756E-3,-2.1425087E-2,3.918902E-3,-1.535596E-2,-4.0905583E-3,1.023248E-2,7.3080454E-3,2.2017457E-2],"split_indices":[2,7,13,11,0,10,14,13,2,0,6,1,0,0,0,0,0,0,0,0,0],"split_type":[0,0,0,0,0,0,0,0,0,0,0,0,0,0,0,0,0,0,0,0,0],"sum_hessian":[1.98E2,8.6E1,1.12E2,8.1E1,5E0,2.1E1,9.1E1,5.6E1,2.5E1,5E0,1.6E1,8.6E1,5E0,6E0,5E1,8E0,1.7E1,8E0,8E0,1.7E1,6.9E1],"tree_param":{"num_deleted":"0","num_feature":"17","num_nodes":"21","size_leaf_vector":"1"}},{"base_weights":[1.0196219E-2,-6.629355E-1,7.8476E-1,-9.366202E-1,5.7928227E-2,-7.513403E-3,9.1168505E-1,-1.0306886E0,-2.9581746E-3,7.862211E-1,-5.620864E-1,5.3916204E-1,1.0927675E0,-2.1745685E-2,-7.375733E-3,9.467227E-4,2.1923926E-2,-3.501765E-3,-1.7823746E-2,1.574069E-2,3.2332062E-3,3.8245486E-3,2.3365866E-2],"categories":[],"categories_nodes":[],"categories_segments":[],"categories_sizes":[],"default_left":[0,0,0,0,0,0,0,0,0,0,0,0,0,0,0,0,0,0,0,0,0,0,0],"id":28,"left_children":[1,3,5,7,9,-1,11,13,-1,15,17,19,21,-1,-1,-1,-1,-1,-1,-1,-1,-1,-1],"loss_changes":[1.017284E2,2.1065956E1,1.4356171E1,4.744461E0,1.4542482E1,0E0,3.6046371E0,9.798889E-1,0E0,2.7599945E0,1.3199344E0,2.265502E0,2.4821663E0,0E0,0E0,0E0,0E0,0E0,0E0,0E0,0E0,0E0,0E0],"parents":[2147483647,0,0,1,1,2,2,3,3,4,4,6,6,7,7,9,9,10,10,11,11,12,12],"right_children":[2,4,6,8,10,-1,12,14,-1,16,18,20,22,-1,-1,-1,-1,-1,-1,-1,-1,-1,-1],"split_conditions":[4.4024196E-2,-6.0519924E0,1.5721689E-1,4.970128E0,-6.040831E0,-7.513403E-3,-8.335557E0,1.2809391E-1,-2.9581746E-3,-6.047725E0,-1.4327456E1,4.967679E0,8.778213E-2,-2.1745685E-2,-7.375733E-3,9.467227E-4,2.1923926E-2,-3.501765E-3,-1.7823746E-2,1.574069E-2,3.2332062E-3,3.8245486E-3,2.3365866E-2],"split_indices":[4,0,8,1,0,0,12,10,0,0,13,1,5,0,0,0,0,0,0,0,0,0,0],"split_type":[0,0,0,0,0,0,0,0,0,0,0,0,0,0,0,0,0,0,0,0,0,0,0],"sum_hessian":[1.91E2,1.02E2,8.9E1,7.4E1,2.8E1,8E0,8.1E1,6.5E1,9E0,1.3E1,1.5E1,3E1,5.1E1,5.8E1,7E0,5E0,8E0,9E0,6E0,1.6E1,1.4E1,5E0,4.6E1],"tree_param":{"num_deleted":"0","num_feature":"17","num_nodes":"23","size_leaf_vector":"1"}},{"base_weights":[-2.0637205E-3,-6.639776E-1,7.521757E-1,-8.9333206E-1,-1.1372353E-1,-0E0,8.9687973E-1,-4.9995175E-1,-2.2082865E-2,8.259838E-1,-6.3408804E-1,-8.110857E-3,1.0418203E-2,4.8131967E-1,1.0110224E0,-1.47444485E-2,-0E0,5.956437E-3,2.244347E-2,-4.6853614E-3,-1.4834941E-2,1.1693716E-2,4.2678288E-4,3.1952136E-3,2.147019E-2],"categories":[],"categories_nodes":[],"categories_segments":[],"categories_sizes":[],"default_left":[0,0,0,0,0,0,0,0,0,0,0,0,0,0,0,0,0,0,0,0,0,0,0,0,0],"id":29,"left_children":[1,3,5,7,9,11,13,15,-1,17,19,-1,-1,21,23,-1,-1,-1,-1,-1,-1,-1,-1,-1,-1],"loss_changes":[1.0180155E2,1.3049438E1,1.060347E1,4.396515E0,1.8066208E1,3.9798932E0,2.0752335E0,3.6649303E0,0E0,6.552572E-1,1.9751835E-1,0E0,0E0,7.1805525E-1,2.231926E0,0E0,0E0,0E0,0E0,0E0,0E0,0E0,0E0,0E0,0E0],"parents":[2147483647,0,0,1,1,2,2,3,3,4,4,5,5,6,6,7,7,9,9,10,10,13,13,14,14],"right_children":[2,4,6,8,10,12,14,16,-1,18,20,-1,-1,22,24,-1,-1,-1,-1,-1,-1,-1,-1,-1,-1],"split_conditions":[3.668373E-2,-6.0513186E0,-9.11539E0,9.5076986E-2,-6.040831E0,-6.0485334E0,-8.3854475E0,4.9906876E-2,-2.2082865E-2,-7.739466E0,4.9695745E0,-8.110857E-3,1.0418203E-2,-8.490496E0,8.668106E-2,-1.47444485E-2,-0E0,5.956437E-3,2.244347E-2,-4.6853614E-3,-1.4834941E-2,1.1693716E-2,4.2678288E-4,3.1952136E-3,2.147019E-2],"split_indices":[2,0,12,5,0,0,12,3,0,12,1,0,0,12,5,0,0,0,0,0,0,0,0,0,0],"split_type":[0,0,0,0,0,0,0,0,0,0,0,0,0,0,0,0,0,0,0,0,0,0,0,0,0],"sum_hessian":[2E2,1.07E2,9.3E1,7.4E1,3.3E1,1.5E1,7.8E1,2.9E1,4.5E1,1.1E1,2.2E1,9E0,6E0,2E1,5.8E1,1.9E1,1E1,6E0,5E0,7E0,1.5E1,1.5E1,5E0,5E0,5.3E1],"tree_param":{"num_deleted":"0","num_feature":"17","num_nodes":"25","size_leaf_vector":"1"}},{"base_weights":[-0E0,-8.046818E-1,7.4823135E-1,-8.7897456E-1,5.9675644E-3,-1.5812875E-1,9.413787E-1,-9.749891E-1,-1.291988E-1,-1.46988435E-2,9.159835E-3,5.7450205E-1,1.2086028E0,-1.4448958E-2,-2.3553222E-2,2.990641E-3,-8.065772E-3,1.6112914E-2,-0E0,2.643601E-2,1.2518179E-2],"categories":[],"categories_nodes":[],"categories_segments":[],"categories_sizes":[],"default_left":[0,0,0,0,0,0,0,0,0,0,0,0,0,0,0,0,0,0,0,0,0],"id":30,"left_children":[1,3,5,7,-1,9,11,13,15,-1,-1,17,19,-1,-1,-1,-1,-1,-1,-1,-1],"loss_changes":[1.1741107E2,8.51807E0,1.837051E1,5.6030273E0,0E0,7.5640163E0,5.954979E0,1.3406296E0,1.2406521E0,0E0,0E0,4.9717197E0,4.056244E-1,0E0,0E0,0E0,0E0,0E0,0E0,0E0,0E0],"parents":[2147483647,0,0,1,1,2,2,3,3,5,5,6,6,7,7,8,8,11,11,12,12],"right_children":[2,4,6,8,-1,10,12,14,16,-1,-1,18,20,-1,-1,-1,-1,-1,-1,-1,-1],"split_conditions":[4.1472092E-2,3.0924723E-1,-1.57593565E1,1.31947E-1,5.9675644E-3,9.435537E-2,-6.0487657E0,9.517155E-2,3.601527E-2,-1.46988435E-2,9.159835E-3,-6.0590034E0,5.64555E-2,-1.4448958E-2,-2.3553222E-2,2.990641E-3,-8.065772E-3,1.6112914E-2,-0E0,2.643601E-2,1.2518179E-2],"split_indices":[4,9,13,10,0,5,0,5,4,0,0,0,4,0,0,0,0,0,0,0,0],"split_type":[0,0,0,0,0,0,0,0,0,0,0,0,0,0,0,0,0,0,0,0,0],"sum_hessian":[1.91E2,9.2E1,9.9E1,8.7E1,5E0,1.7E1,8.2E1,7.6E1,1.1E1,9E0,8E0,3.8E1,4.4E1,3.9E1,3.7E1,5E0,6E0,2.6E1,1.2E1,3.4E1,1E1],"tree_param":{"num_deleted":"0","num_feature":"17","num_nodes":"21","size_leaf_vector":"1"}},{"base_weights":[1.6508337E-2,-7.3414695E-1,6.3611746E-1,-9.6319664E-1,-0E0,2.6084232E-1,2.1802094E-2,-1.312212E-2,-1.1529531E0,2.2130454E-2,-4.259191E-1,-2.1833025E-1,6.595505E-1,-2.561887E-2,-5.485096E-3,-3.7850465E-3,-1.182541E-2,-1.9003293E-2,-0E0,1.7050598E-2,1.7967336E-3],"categories":[],"categories_nodes":[],"categories_segments":[],"categories_sizes":[],"default_left":[0,0,0,0,0,0,0,0,0,0,0,0,0,0,0,0,0,0,0,0,0],"id":31,"left_children":[1,3,5,7,9,11,-1,-1,13,-1,15,17,19,-1,-1,-1,-1,-1,-1,-1,-1],"loss_changes":[9.390756E1,1.4968166E1,1.7666916E1,1.6033554E0,1.2017481E1,1.2735809E1,0E0,0E0,2.905922E0,0E0,1.2947011E-1,4.8896475E0,3.3335876E0,0E0,0E0,0E0,0E0,0E0,0E0,0E0,0E0],"parents":[2147483647,0,0,1,1,2,2,3,3,4,4,5,5,8,8,10,10,11,11,12,12],"right_children":[2,4,6,8,10,12,-1,-1,14,-1,16,18,20,-1,-1,-1,-1,-1,-1,-1,-1],"split_conditions":[3.973847E-2,-6.047725E0,-6.0473394E0,1.14899404E-1,-6.045939E0,1.8782097E-1,2.1802094E-2,-1.312212E-2,1.2809391E-1,2.2130454E-2,4.969952E0,-1.6762775E1,4.9701004E0,-2.561887E-2,-5.485096E-3,-3.7850465E-3,-1.182541E-2,-1.9003293E-2,-0E0,1.7050598E-2,1.7967336E-3],"split_indices":[4,0,0,10,0,6,0,0,10,0,1,13,1,0,0,0,0,0,0,0,0],"split_type":[0,0,0,0,0,0,0,0,0,0,0,0,0,0,0,0,0,0,0,0,0],"sum_hessian":[1.98E2,8.9E1,1.09E2,6.7E1,2.2E1,6.2E1,4.7E1,3E1,3.7E1,5E0,1.7E1,2.8E1,3.4E1,3.1E1,6E0,1E1,7E0,5E0,2.3E1,2.4E1,1E1],"tree_param":{"num_deleted":"0","num_feature":"17","num_nodes":"21","size_leaf_vector":"1"}},{"base_weights":[-5.7412077E-2,-6.9761556E-1,7.839857E-1,-9.177808E-1,-8.109627E-2,-7.2019E-3,9.2047036E-1,1.9017778E-3,-9.9349827E-1,6.583168E-1,-6.826228E-1,9.9607587E-1,-0E0,-2.1198306E-2,-5.8632502E-3,-0E0,2.1260435E-2,-1.9789653E-2,-5.9408145E-3,1.27692325E-2,2.2880567E-2],"categories":[],"categories_nodes":[],"categories_segments":[],"categories_sizes":[],"default_left":[0,0,0,0,0,0,0,0,0,0,0,0,0,0,0,0,0,0,0,0,0],"id":32,"left_children":[1,3,5,7,9,-1,11,-1,13,15,17,19,-1,-1,-1,-1,-1,-1,-1,-1,-1],"loss_changes":[1.0501315E2,1.4418411E1,1.4059658E1,6.850197E0,1.5143767E1,0E0,5.0595093E0,0E0,2.2370834E0,3.669424E0,1.0169783E0,1.3516159E0,0E0,0E0,0E0,0E0,0E0,0E0,0E0,0E0,0E0],"parents":[2147483647,0,0,1,1,2,2,3,3,4,4,6,6,8,8,9,9,10,10,11,11],"right_children":[2,4,6,8,10,-1,12,-1,14,16,18,20,-1,-1,-1,-1,-1,-1,-1,-1,-1],"split_conditions":[4.4024196E-2,-6.0519924E0,-1.6617107E1,-6.0604415E0,-6.045939E0,-7.2019E-3,1.6205388E-1,1.9017778E-3,1.2809391E-1,-6.047725E0,3.1607203E-2,-6.0489955E0,-0E0,-2.1198306E-2,-5.8632502E-3,-0E0,2.1260435E-2,-1.9789653E-2,-5.9408145E-3,1.27692325E-2,2.2880567E-2],"split_indices":[4,0,13,0,0,0,10,0,10,0,2,0,0,0,0,0,0,0,0,0,0],"split_type":[0,0,0,0,0,0,0,0,0,0,0,0,0,0,0,0,0,0,0,0,0],"sum_hessian":[1.91E2,1.09E2,8.2E1,7.9E1,3E1,8E0,7.4E1,5E0,7.4E1,1.3E1,1.7E1,6.8E1,6E0,6.6E1,8E0,6E0,7E0,7E0,1E1,2.4E1,4.4E1],"tree_param":{"num_deleted":"0","num_feature":"17","num_nodes":"21","size_leaf_vector":"1"}},{"base_weights":[3.2547787E-2,-7.322427E-1,4.7654632E-1,5.184494E-3,-8.2143354E-1,1.0239764E-2,8.7244636E-1,-9.1156805E-1,2.8033527E-3,-6.5762806E-1,3.3968922E-1,5.121448E-1,1.947388E-2,-1.3052431E-2,-2.4013538E-2,-1.8611198E-2,-2.9716843E-3,1.6703043E-2,-2.0445457E-4,6.360749E-4,1.2693692E-2],"categories":[],"categories_nodes":[],"categories_segments":[],"categories_sizes":[],"default_left":[0,0,0,0,0,0,0,0,0,0,0,0,0,0,0,0,0,0,0,0,0],"id":33,"left_children":[1,3,5,-1,7,9,11,13,-1,15,17,19,-1,-1,-1,-1,-1,-1,-1,-1,-1],"loss_changes":[6.6785385E1,7.073925E0,2.2617138E1,0E0,6.4483643E0,1.348953E1,7.038765E-1,2.1477242E0,0E0,1.9625807E0,7.7110114E0,8.0360365E-1,0E0,0E0,0E0,0E0,0E0,0E0,0E0,0E0,0E0],"parents":[2147483647,0,0,1,1,2,2,4,4,5,5,6,6,7,7,9,9,10,10,11,11],"right_children":[2,4,6,-1,8,10,12,14,-1,16,18,20,-1,-1,-1,-1,-1,-1,-1,-1,-1],"split_conditions":[5.77439E-2,-6.0597315E0,5.8499705E-2,5.184494E-3,3.0924723E-1,-6.05426E0,-8.329487E0,1.1657913E-1,2.8033527E-3,7.067623E-1,2.1113908E-1,1.9135602E-1,1.947388E-2,-1.3052431E-2,-2.4013538E-2,-1.8611198E-2,-2.9716843E-3,1.6703043E-2,-2.0445457E-4,6.360749E-4,1.2693692E-2],"split_indices":[11,0,3,0,9,0,12,10,0,14,9,6,0,0,0,0,0,0,0,0,0],"split_type":[0,0,0,0,0,0,0,0,0,0,0,0,0,0,0,0,0,0,0,0,0],"sum_hessian":[1.93E2,7E1,1.23E2,5E0,6.5E1,5.8E1,6.5E1,6E1,5E0,1.8E1,4E1,1.8E1,4.7E1,3.6E1,2.4E1,1E1,8E0,1.6E1,2.4E1,5E0,1.3E1],"tree_param":{"num_deleted":"0","num_feature":"17","num_nodes":"21","size_leaf_vector":"1"}},{"base_weights":[-8.91448E-2,-8.620539E-1,5.859386E-1,-9.277065E-1,2.7633053E-3,-2.6788095E-2,9.225249E-1,-1.0292714E0,-3.530213E-1,-1.5029803E-2,2.240552E-1,1.9682735E-2,4.8418588E-4,-1.7073506E-2,-2.7684662E-2,1.3032914E-4,-1.0911628E-2,1.1242469E-2,-6.701356E-3],"categories":[],"categories_nodes":[],"categories_segments":[],"categories_sizes":[],"default_left":[0,0,0,0,0,0,0,0,0,0,0,0,0,0,0,0,0,0,0],"id":34,"left_children":[1,3,5,7,-1,9,11,13,15,-1,17,-1,-1,-1,-1,-1,-1,-1,-1],"loss_changes":[1.0393855E2,6.758156E0,2.235825E1,3.7185135E0,0E0,7.6901474E0,3.2671127E0,1.067749E0,1.4535978E0,0E0,6.1608796E0,0E0,0E0,0E0,0E0,0E0,0E0,0E0,0E0],"parents":[2147483647,0,0,1,1,2,2,3,3,5,5,6,6,7,7,8,8,10,10],"right_children":[2,4,6,8,-1,10,12,14,16,-1,18,-1,-1,-1,-1,-1,-1,-1,-1],"split_conditions":[3.973847E-2,2.8498772E-1,2.0820323E-1,1.2809391E-1,2.7633053E-3,-1.6075993E1,7.145428E-1,5.2357785E-2,3.5200592E-2,-1.5029803E-2,1.7876717E-1,1.9682735E-2,4.8418588E-4,-1.7073506E-2,-2.7684662E-2,1.3032914E-4,-1.0911628E-2,1.1242469E-2,-6.701356E-3],"split_indices":[4,7,8,10,0,13,14,3,4,0,7,0,0,0,0,0,0,0,0],"split_type":[0,0,0,0,0,0,0,0,0,0,0,0,0,0,0,0,0,0,0],"sum_hessian":[1.95E2,9.1E1,1.04E2,8.6E1,5E0,3.7E1,6.7E1,7.1E1,1.5E1,9E0,2.8E1,6.2E1,5E0,5.3E1,1.8E1,5E0,1E1,1.8E1,1E1],"tree_param":{"num_deleted":"0","num_feature":"17","num_nodes":"19","size_leaf_vector":"1"}},{"base_weights":[7.585622E-2,-6.586258E-1,6.332225E-1,-8.8333905E-1,-7.880532E-2,1.011861E-1,9.155753E-1,-4.6504322E-1,-1.9194212E-2,-4.7991884E-1,2.1512449E-2,-5.215302E-1,7.0912564E-1,9.76173E-1,2.2409846E-4,-0E0,-1.4613881E-2,-1.1724558E-2,-5.6756905E-4,-1.8211408E-2,-0E0,1.7978009E-2,-0E0,2.2836756E-2,1.3986718E-2],"categories":[],"categories_nodes":[],"categories_segments":[],"categories_sizes":[],"default_left":[0,0,0,0,0,0,0,0,0,0,0,0,0,0,0,0,0,0,0,0,0,0,0,0,0],"id":35,"left_children":[1,3,5,7,9,11,13,15,-1,17,-1,19,21,23,-1,-1,-1,-1,-1,-1,-1,-1,-1,-1,-1],"loss_changes":[7.9012146E1,1.019405E1,1.5830753E1,2.798195E-1,1.2774043E1,1.6354984E1,3.3754234E0,1.7775109E0,0E0,6.674838E-1,0E0,4.237793E0,2.6734724E0,5.0925446E-1,0E0,0E0,0E0,0E0,0E0,0E0,0E0,0E0,0E0,0E0,0E0],"parents":[2147483647,0,0,1,1,2,2,3,3,4,4,5,5,6,6,7,7,9,9,11,11,12,12,13,13],"right_children":[2,4,6,8,10,12,14,16,-1,18,-1,20,22,24,-1,-1,-1,-1,-1,-1,-1,-1,-1,-1,-1],"split_conditions":[3.9618228E-2,-6.0517626E0,2.0820323E-1,-1.4901008E1,2.1834819E-1,-6.0503564E0,7.145428E-1,3.166989E-2,-1.9194212E-2,9.299182E-2,2.1512449E-2,4.9075887E-2,9.034132E-2,5.6361355E-2,2.2409846E-4,-0E0,-1.4613881E-2,-1.1724558E-2,-5.6756905E-4,-1.8211408E-2,-0E0,1.7978009E-2,-0E0,2.2836756E-2,1.3986718E-2],"split_indices":[4,0,8,13,6,0,14,2,0,5,0,4,5,4,0,0,0,0,0,0,0,0,0,0,0],"split_type":[0,0,0,0,0,0,0,0,0,0,0,0,0,0,0,0,0,0,0,0,0,0,0,0,0],"sum_hessian":[1.89E2,8.1E1,1.08E2,5.7E1,2.4E1,3.9E1,6.9E1,1.2E1,4.5E1,1.9E1,5E0,1.9E1,2E1,6.4E1,5E0,5E0,7E0,1.4E1,5E0,1E1,9E0,1.5E1,5E0,3.5E1,2.9E1],"tree_param":{"num_deleted":"0","num_feature":"17","num_nodes":"25","size_leaf_vector":"1"}},{"base_weights":[-4.3763977E-2,-7.5174296E-1,6.3885087E-1,-8.8735664E-1,-3.1590322E-1,-9.374847E-3,7.641896E-1,-9.397684E-1,-6.489002E-3,1.4458123E-2,-6.4044225E-1,-0E0,8.242362E-1,-1.4187743E-2,-2.4053607E-2,-2.8954148E-3,-1.5539455E-2,1.7467111E-2,-0E0],"categories":[],"categories_nodes":[],"categories_segments":[],"categories_sizes":[],"default_left":[0,0,0,0,0,0,0,0,0,0,0,0,0,0,0,0,0,0,0],"id":36,"left_children":[1,3,5,7,9,-1,11,13,-1,-1,15,-1,17,-1,-1,-1,-1,-1,-1],"loss_changes":[9.525596E1,4.570999E0,1.4746574E1,8.8228226E-1,9.987351E0,0E0,3.9239845E0,1.2141151E0,0E0,0E0,8.029957E-1,0E0,3.1905594E0,0E0,0E0,0E0,0E0,0E0,0E0],"parents":[2147483647,0,0,1,1,2,2,3,3,4,4,6,6,7,7,10,10,12,12],"right_children":[2,4,6,8,10,-1,12,14,-1,-1,16,-1,18,-1,-1,-1,-1,-1,-1],"split_conditions":[3.973847E-2,-6.0517626E0,1.5721689E-1,1.2809391E-1,-6.7567843E-1,-9.374847E-3,5.1759273E-2,1.167337E-1,-6.489002E-3,1.4458123E-2,-8.696475E0,-0E0,4.1272908E-1,-1.4187743E-2,-2.4053607E-2,-2.8954148E-3,-1.5539455E-2,1.7467111E-2,-0E0],"split_indices":[4,0,8,10,15,0,3,10,0,0,12,0,16,0,0,0,0,0,0],"split_type":[0,0,0,0,0,0,0,0,0,0,0,0,0,0,0,0,0,0,0],"sum_hessian":[1.93E2,9.5E1,9.8E1,7E1,2.5E1,9E0,8.9E1,6.2E1,8E0,5E0,2E1,7E0,8.2E1,3.8E1,2.4E1,6E0,1.4E1,7.7E1,5E0],"tree_param":{"num_deleted":"0","num_feature":"17","num_nodes":"19","size_leaf_vector":"1"}},{"base_weights":[-7.274146E-2,-6.4380723E-1,5.7775503E-1,-8.100871E-1,-1.7406298E-1,-1.8405313E-2,7.142449E-1,-8.621879E-1,-2.0441646E-3,1.4532141E-2,-6.530746E-1,-1.5823459E-4,7.9815257E-1,-1.83892E-2,-4.53715E-3,-7.5378E-4,-1.7217407E-2,2.695875E-3,1.710244E-2],"categories":[],"categories_nodes":[],"categories_segments":[],"categories_sizes":[],"default_left":[0,0,0,0,0,0,0,0,0,0,0,0,0,0,0,0,0,0,0],"id":37,"left_children":[1,3,5,7,9,-1,11,13,-1,-1,15,-1,17,-1,-1,-1,-1,-1,-1],"loss_changes":[7.098596E1,7.193039E0,1.9408932E1,2.0707588E0,1.3855236E1,0E0,5.437092E0,1.483963E0,0E0,0E0,2.171194E0,0E0,2.1088524E0,0E0,0E0,0E0,0E0,0E0,0E0],"parents":[2147483647,0,0,1,1,2,2,3,3,4,4,6,6,7,7,10,10,12,12],"right_children":[2,4,6,8,10,-1,12,14,-1,-1,16,-1,18,-1,-1,-1,-1,-1,-1],"split_conditions":[3.668373E-2,-6.0513186E0,5.6328718E-2,-1.3404765E1,-6.045939E0,-1.8405313E-2,1.5721689E-1,4.970128E0,-2.0441646E-3,1.4532141E-2,4.9695745E0,-1.5823459E-4,5.2027967E-2,-1.83892E-2,-4.53715E-3,-7.5378E-4,-1.7217407E-2,2.695875E-3,1.710244E-2],"split_indices":[2,0,11,13,0,0,8,1,0,0,1,0,3,0,0,0,0,0,0],"split_type":[0,0,0,0,0,0,0,0,0,0,0,0,0,0,0,0,0,0,0],"sum_hessian":[1.87E2,1E2,8.7E1,7.2E1,2.8E1,6E0,8.1E1,6.6E1,6E0,9E0,1.9E1,8E0,7.3E1,5.9E1,7E0,6E0,1.3E1,7E0,6.6E1],"tree_param":{"num_deleted":"0","num_feature":"17","num_nodes":"19","size_leaf_vector":"1"}},{"base_weights":[2.2929931E-2,-6.594388E-1,5.7173926E-1,-7.5335586E-1,1.1154306E-2,2.271237E-1,1.0229683E0,-1.9237394E-2,-4.4813612E-1,-3.417037E-1,6.12226E-1,2.2871956E-2,1.1757078E-2,-0E0,-1.1182474E-2,-1.8982708E-2,-1.837809E-4,1.5615889E-2,9.420124E-4],"categories":[],"categories_nodes":[],"categories_segments":[],"categories_sizes":[],"default_left":[0,0,0,0,0,0,0,0,0,0,0,0,0,0,0,0,0,0,0],"id":38,"left_children":[1,3,5,7,-1,9,11,-1,13,15,17,-1,-1,-1,-1,-1,-1,-1,-1],"loss_changes":[7.336132E1,1.0883244E1,1.5859829E1,3.6515923E0,0E0,1.479235E1,2.0417023E-1,0E0,1.7471924E0,4.956854E0,3.3229923E0,0E0,0E0,0E0,0E0,0E0,0E0,0E0,0E0],"parents":[2147483647,0,0,1,1,2,2,3,3,5,5,6,6,8,8,9,9,10,10],"right_children":[2,4,6,8,-1,10,12,-1,14,16,18,-1,-1,-1,-1,-1,-1,-1,-1],"split_conditions":[3.9618228E-2,2.8592646E-1,-6.0473394E0,4.968457E0,1.1154306E-2,2.0769271E-1,1.00210756E-1,-1.9237394E-2,-1.4722497E1,-1.6075993E1,4.9701004E0,2.2871956E-2,1.1757078E-2,-0E0,-1.1182474E-2,-1.8982708E-2,-1.837809E-4,1.5615889E-2,9.420124E-4],"split_indices":[4,7,0,1,0,7,5,0,13,13,1,0,0,0,0,0,0,0,0],"split_type":[0,0,0,0,0,0,0,0,0,0,0,0,0,0,0,0,0,0,0],"sum_hessian":[1.92E2,8.5E1,1.07E2,8E1,5E0,6.3E1,4.4E1,4.4E1,3.6E1,2.5E1,3.8E1,3.1E1,1.3E1,8E0,2.8E1,7E0,1.8E1,2.8E1,1E1],"tree_param":{"num_deleted":"0","num_feature":"17","num_nodes":"19","size_leaf_vector":"1"}},{"base_weights":[-4.8253857E-2,-7.706658E-1,5.40089E-1,-9.314701E-1,-1.9104667E-1,2.1699518E-1,1.8601445E-2,-9.866902E-1,-4.8531843E-3,7.909444E-3,-9.100356E-3,6.0695255E-1,-3.2630476E-1,-1.33128865E-2,-2.3000138E-2,1.579179E-2,3.891078E-4,-1.204707E-2,3.164782E-3],"categories":[],"categories_nodes":[],"categories_segments":[],"categories_sizes":[],"default_left":[0,0,0,0,0,0,0,0,0,0,0,0,0,0,0,0,0,0,0],"id":39,"left_children":[1,3,5,7,9,11,-1,13,-1,-1,-1,15,17,-1,-1,-1,-1,-1,-1],"loss_changes":[7.745241E1,6.725666E0,1.1622946E1,1.3027496E0,3.640972E0,1.2824528E1,0E0,5.4981613E-1,0E0,0E0,0E0,3.3202105E0,3.7566326E0,0E0,0E0,0E0,0E0,0E0,0E0],"parents":[2147483647,0,0,1,1,2,2,3,3,4,4,5,5,7,7,11,11,12,12],"right_children":[2,4,6,8,10,12,-1,14,-1,-1,-1,16,18,-1,-1,-1,-1,-1,-1],"split_conditions":[3.9618228E-2,1.2673768E-1,-6.0473394E0,4.9703627E0,3.164801E-2,-6.0590034E0,1.8601445E-2,1.1436356E-1,-4.8531843E-3,7.909444E-3,-9.100356E-3,4.9701004E0,-6.0503564E0,-1.33128865E-2,-2.3000138E-2,1.579179E-2,3.891078E-4,-1.204707E-2,3.164782E-3],"split_indices":[4,10,0,1,2,0,0,10,0,0,0,1,0,0,0,0,0,0,0],"split_type":[0,0,0,0,0,0,0,0,0,0,0,0,0,0,0,0,0,0,0],"sum_hessian":[1.78E2,8E1,9.8E1,6.1E1,1.9E1,5.6E1,4.2E1,5.5E1,6E0,5E0,1.4E1,3.3E1,2.3E1,2.3E1,3.2E1,2.4E1,9E0,1.5E1,8E0],"tree_param":{"num_deleted":"0","num_feature":"17","num_nodes":"19","size_leaf_vector":"1"}},{"base_weights":[-1.6566912E-3,-6.732792E-1,5.360139E-1,-7.825758E-1,1.1056603E-2,4.7675285E-2,8.332508E-1,-1.7407482E-2,-1.4420383E-1,-4.6015733E-1,5.300489E-1,9.267241E-1,5.350807E-1,3.2117052E-3,-8.746866E-3,-1.5659768E-2,-0E0,1.4789497E-2,-2.3681354E-3,2.0823488E-2,4.9004545E-3,-0E0,1.3533354E-2],"categories":[],"categories_nodes":[],"categories_segments":[],"categories_sizes":[],"default_left":[0,0,0,0,0,0,0,0,0,0,0,0,0,0,0,0,0,0,0,0,0,0,0],"id":40,"left_children":[1,3,5,7,-1,9,11,-1,13,15,17,19,21,-1,-1,-1,-1,-1,-1,-1,-1,-1,-1],"loss_changes":[7.120719E1,1.2772972E1,1.5301685E1,3.8376236E0,0E0,1.1301221E1,1.4470291E-1,0E0,1.4403353E0,3.3115363E0,3.7449336E0,2.5136642E0,1.4850974E0,0E0,0E0,0E0,0E0,0E0,0E0,0E0,0E0,0E0,0E0],"parents":[2147483647,0,0,1,1,2,2,3,3,5,5,6,6,8,8,9,9,10,10,11,11,12,12],"right_children":[2,4,6,8,-1,10,12,-1,14,16,18,20,22,-1,-1,-1,-1,-1,-1,-1,-1,-1,-1],"split_conditions":[3.973847E-2,2.7999255E-1,2.0820323E-1,1.31947E-1,1.1056603E-2,-6.0503564E0,2.3733768E-1,-1.7407482E-2,3.601527E-2,4.9075887E-2,1.8694577E-1,1.3540746E-1,5.140956E-2,3.2117052E-3,-8.746866E-3,-1.5659768E-2,-0E0,1.4789497E-2,-2.3681354E-3,2.0823488E-2,4.9004545E-3,-0E0,1.3533354E-2],"split_indices":[4,8,8,10,0,0,6,0,4,4,7,10,2,0,0,0,0,0,0,0,0,0,0],"split_type":[0,0,0,0,0,0,0,0,0,0,0,0,0,0,0,0,0,0,0,0,0,0,0],"sum_hessian":[1.93E2,8.6E1,1.07E2,8E1,6E0,4.2E1,6.5E1,6.9E1,1.1E1,2E1,2.2E1,4.5E1,2E1,5E0,6E0,1.1E1,9E0,1.7E1,5E0,3.7E1,8E0,5E0,1.5E1],"tree_param":{"num_deleted":"0","num_feature":"17","num_nodes":"23","size_leaf_vector":"1"}},{"base_weights":[-1.7859878E-2,-6.584315E-1,5.235133E-1,-8.393159E-1,-1.9035043E-1,-1.24453254E-1,6.9798046E-1,-6.3212305E-1,-2.200509E-2,2.0691888E-2,-5.525968E-1,-7.5168484E-1,1.172785E-2,-0E0,7.573864E-1,-1.3748741E-2,-4.419714E-3,-1.7809963E-2,-5.585694E-3,1.1615821E-3,-2.5400314E-2,1.6238295E-2,1.5937208E-4],"categories":[],"categories_nodes":[],"categories_segments":[],"categories_sizes":[],"default_left":[0,0,0,0,0,0,0,0,0,0,0,0,0,0,0,0,0,0,0,0,0,0,0],"id":41,"left_children":[1,3,5,7,9,11,13,15,-1,-1,17,19,-1,-1,21,-1,-1,-1,-1,-1,-1,-1,-1],"loss_changes":[6.942094E1,6.955147E0,1.2669775E1,1.257019E0,1.3770653E1,1.1664969E1,3.419899E0,1.9711113E-1,0E0,0E0,1.1341648E0,6.62965E0,0E0,0E0,2.8054123E0,0E0,0E0,0E0,0E0,0E0,0E0,0E0,0E0],"parents":[2147483647,0,0,1,1,2,2,3,3,4,4,5,5,6,6,7,7,10,10,11,11,14,14],"right_children":[2,4,6,8,10,12,14,16,-1,-1,18,20,-1,-1,22,-1,-1,-1,-1,-1,-1,-1,-1],"split_conditions":[3.9594408E-2,-6.047725E0,5.407719E-2,5.231976E-2,-6.045939E0,-6.0503564E0,1.504824E-1,5.1194917E-2,-2.200509E-2,2.0691888E-2,3.1607203E-2,3.520678E-2,1.172785E-2,-0E0,4.1590026E-1,-1.3748741E-2,-4.419714E-3,-1.7809963E-2,-5.585694E-3,1.1615821E-3,-2.5400314E-2,1.6238295E-2,1.5937208E-4],"split_indices":[4,0,3,3,0,0,6,3,0,0,2,2,0,0,16,0,0,0,0,0,0,0,0],"split_type":[0,0,0,0,0,0,0,0,0,0,0,0,0,0,0,0,0,0,0,0,0,0,0],"sum_hessian":[1.96E2,9E1,1.06E2,6.3E1,2.7E1,2.2E1,8.4E1,4E1,2.3E1,5E0,2.2E1,1.2E1,1E1,7E0,7.7E1,3.3E1,7E0,7E0,1.5E1,5E0,7E0,7.1E1,6E0],"tree_param":{"num_deleted":"0","num_feature":"17","num_nodes":"23","size_leaf_vector":"1"}},{"base_weights":[-3.0377489E-2,-6.460976E-1,4.796343E-1,-7.348266E-1,1.1143448E-2,1.7051053E-1,1.7390411E-2,-9.402555E-1,-3.1377435E-1,-1.10200204E-1,6.683785E-1,-1.3321519E-2,-2.2045327E-2,6.749503E-3,-1.0862444E-2,-1.8957296E-2,2.5589645E-3,1.5429029E-2,2.5242982E-3],"categories":[],"categories_nodes":[],"categories_segments":[],"categories_sizes":[],"default_left":[0,0,0,0,0,0,0,0,0,0,0,0,0,0,0,0,0,0,0],"id":42,"left_children":[1,3,5,7,-1,9,-1,11,13,15,17,-1,-1,-1,-1,-1,-1,-1,-1],"loss_changes":[6.2879868E1,1.0623291E1,1.2320477E1,6.221611E0,0E0,9.37084E0,0E0,1.3496399E-1,5.249009E0,9.031031E0,6.9760704E-1,0E0,0E0,0E0,0E0,0E0,0E0,0E0,0E0],"parents":[2147483647,0,0,1,1,2,2,3,3,5,5,7,7,8,8,9,9,10,10],"right_children":[2,4,6,8,-1,10,-1,12,14,16,18,-1,-1,-1,-1,-1,-1,-1,-1],"split_conditions":[3.973847E-2,2.8592646E-1,-6.0473394E0,5.8544755E-2,1.1143448E-2,6.948449E-2,1.7390411E-2,1.1443288E-1,3.464945E-2,-9.40151E0,-6.50592E0,-1.3321519E-2,-2.2045327E-2,6.749503E-3,-1.0862444E-2,-1.8957296E-2,2.5589645E-3,1.5429029E-2,2.5242982E-3],"split_indices":[4,7,0,11,0,3,0,10,4,12,12,0,0,0,0,0,0,0,0],"split_type":[0,0,0,0,0,0,0,0,0,0,0,0,0,0,0,0,0,0,0],"sum_hessian":[1.96E2,8.9E1,1.07E2,8.4E1,5E0,6.2E1,4.5E1,5.4E1,3E1,4E1,2.2E1,2.5E1,2.9E1,7E0,2.3E1,8E0,3.2E1,1.7E1,5E0],"tree_param":{"num_deleted":"0","num_feature":"17","num_nodes":"19","size_leaf_vector":"1"}},{"base_weights":[-6.495408E-2,-5.813119E-1,5.1761055E-1,-8.013808E-1,-4.7954135E-2,-1.3453756E-2,6.115487E-1,-4.0289286E-1,-8.693555E-1,5.7226586E-1,-4.511423E-1,-4.819997E-3,6.78789E-1,-1.5402125E-2,-3.0529738E-4,-1.8393632E-2,-5.373752E-3,1.1365598E-3,1.6354151E-2,-1.7918673E-3,-1.2427777E-2,6.8076453E-3,1.5502459E-2],"categories":[],"categories_nodes":[],"categories_segments":[],"categories_sizes":[],"default_left":[0,0,0,0,0,0,0,0,0,0,0,0,0,0,0,0,0,0,0,0,0,0,0],"id":43,"left_children":[1,3,5,7,9,-1,11,13,15,17,19,-1,21,-1,-1,-1,-1,-1,-1,-1,-1,-1,-1],"loss_changes":[5.658463E1,1.1236019E1,1.0631865E1,5.594635E-1,8.457876E0,0E0,5.304096E0,1.7189364E0,6.3467026E-1,1.1144242E0,8.257656E-1,0E0,1.4573784E0,0E0,0E0,0E0,0E0,0E0,0E0,0E0,0E0,0E0,0E0],"parents":[2147483647,0,0,1,1,2,2,3,3,4,4,6,6,7,7,8,8,9,9,10,10,12,12],"right_children":[2,4,6,8,10,-1,12,14,16,18,20,-1,22,-1,-1,-1,-1,-1,-1,-1,-1,-1,-1],"split_conditions":[3.5964493E-2,-6.0513186E0,-1.6734913E1,-1.4901008E1,-6.040831E0,-1.3453756E-2,5.6328718E-2,-6.058207E0,4.969745E0,-6.047446E0,3.6396188E-1,-4.819997E-3,2.3570034E-1,-1.5402125E-2,-3.0529738E-4,-1.8393632E-2,-5.373752E-3,1.1365598E-3,1.6354151E-2,-1.7918673E-3,-1.2427777E-2,6.8076453E-3,1.5502459E-2],"split_indices":[2,0,13,13,0,0,11,0,1,0,16,0,9,0,0,0,0,0,0,0,0,0,0],"split_type":[0,0,0,0,0,0,0,0,0,0,0,0,0,0,0,0,0,0,0,0,0,0,0],"sum_hessian":[1.84E2,9.8E1,8.6E1,6.8E1,3E1,5E0,8.1E1,1.3E1,5.5E1,1.1E1,1.9E1,5E0,7.6E1,5E0,8E0,4.9E1,6E0,5E0,6E0,8E0,1.1E1,2E1,5.6E1],"tree_param":{"num_deleted":"0","num_feature":"17","num_nodes":"23","size_leaf_vector":"1"}},{"base_weights":[-3.95151E-2,-6.8675584E-1,4.9787888E-1,-7.479817E-1,3.1049864E-3,-3.433758E-2,7.6450795E-1,-9.0041876E-1,-2.83724E-1,-1.7985562E-2,2.591653E-1,8.18565E-1,3.2132466E-3,-1.901263E-2,-3.5439867E-3,2.696571E-3,-1.3941765E-2,1.3056789E-2,-2.714617E-3,9.214661E-3,1.903882E-2],"categories":[],"categories_nodes":[],"categories_segments":[],"categories_sizes":[],"default_left":[0,0,0,0,0,0,0,0,0,0,0,0,0,0,0,0,0,0,0,0,0],"id":44,"left_children":[1,3,5,7,-1,9,11,13,15,-1,17,19,-1,-1,-1,-1,-1,-1,-1,-1,-1],"loss_changes":[6.6516884E1,5.0136833E0,1.517564E1,4.700138E0,0E0,9.925231E0,1.5323105E0,1.2780685E0,4.6214566E0,0E0,4.7886662E0,1.4232292E0,0E0,0E0,0E0,0E0,0E0,0E0,0E0,0E0,0E0],"parents":[2147483647,0,0,1,1,2,2,3,3,5,5,6,6,7,7,8,8,10,10,11,11],"right_children":[2,4,6,8,-1,10,12,14,16,-1,18,20,-1,-1,-1,-1,-1,-1,-1,-1,-1],"split_conditions":[3.9594408E-2,2.8498772E-1,2.0820323E-1,1.2673768E-1,3.1049864E-3,-1.6075993E1,4.1272908E-1,4.970486E0,3.563695E-2,-1.7985562E-2,1.5576126E-1,-8.232296E0,3.2132466E-3,-1.901263E-2,-3.5439867E-3,2.696571E-3,-1.3941765E-2,1.3056789E-2,-2.714617E-3,9.214661E-3,1.903882E-2],"split_indices":[4,7,8,10,0,13,16,1,4,0,6,12,0,0,0,0,0,0,0,0,0],"split_type":[0,0,0,0,0,0,0,0,0,0,0,0,0,0,0,0,0,0,0,0,0],"sum_hessian":[1.87E2,8.5E1,1.02E2,8E1,5E0,3.4E1,6.8E1,5.8E1,2.2E1,8E0,2.6E1,6.1E1,7E0,5.3E1,5E0,1.1E1,1.1E1,1.3E1,1.3E1,2E1,4.1E1],"tree_param":{"num_deleted":"0","num_feature":"17","num_nodes":"21","size_leaf_vector":"1"}},{"base_weights":[-0E0,-4.9169844E-1,5.593287E-1,-7.274481E-1,2.3024935E-2,-1.2292985E-2,6.821329E-1,-7.9625005E-1,-2.1077308E-3,7.1291584E-1,-4.1528568E-1,3.9436358E-1,1.8629022E-2,-1.7492224E-2,-4.569287E-3,5.4895817E-3,2.003003E-2,-0E0,-1.3961677E-2,1.3840235E-2,-2.4949777E-4],"categories":[],"categories_nodes":[],"categories_segments":[],"categories_sizes":[],"default_left":[0,0,0,0,0,0,0,0,0,0,0,0,0,0,0,0,0,0,0,0,0],"id":45,"left_children":[1,3,5,7,9,-1,11,13,-1,15,17,19,-1,-1,-1,-1,-1,-1,-1,-1,-1],"loss_changes":[5.1949173E1,1.2641644E1,1.3559202E1,2.377285E0,1.0719697E1,0E0,4.413868E0,1.807354E0,0E0,5.835986E-1,2.2261467E0,5.443012E0,0E0,0E0,0E0,0E0,0E0,0E0,0E0,0E0,0E0],"parents":[2147483647,0,0,1,1,2,2,3,3,4,4,6,6,7,7,9,9,10,10,11,11],"right_children":[2,4,6,8,10,-1,12,14,-1,16,18,20,-1,-1,-1,-1,-1,-1,-1,-1,-1],"split_conditions":[4.4024196E-2,-6.0513186E0,-1.6734913E1,4.970128E0,-6.040831E0,-1.2292985E-2,-6.0485334E0,1.2809391E-1,-2.1077308E-3,-7.739466E0,4.969952E0,-6.0591135E0,1.8629022E-2,-1.7492224E-2,-4.569287E-3,5.4895817E-3,2.003003E-2,-0E0,-1.3961677E-2,1.3840235E-2,-2.4949777E-4],"split_indices":[4,0,13,1,0,0,0,10,0,12,1,0,0,0,0,0,0,0,0,0,0],"split_type":[0,0,0,0,0,0,0,0,0,0,0,0,0,0,0,0,0,0,0,0,0],"sum_hessian":[1.85E2,9.9E1,8.6E1,6.8E1,3.1E1,7E0,7.9E1,6E1,8E0,1.2E1,1.9E1,4E1,3.9E1,5.1E1,9E0,7E0,5E0,9E0,1E1,2.3E1,1.7E1],"tree_param":{"num_deleted":"0","num_feature":"17","num_nodes":"21","size_leaf_vector":"1"}},{"base_weights":[-2.7583607E-3,-6.065475E-1,5.1340395E-1,-6.888432E-1,1.083309E-2,3.5401423E-2,7.932172E-1,-7.7250224E-1,-9.45979E-2,-3.9677238E-1,4.3143672E-1,8.982018E-1,5.353034E-1,-1.2656425E-2,-2.2119364E-2,3.1212727E-3,-6.4818133E-3,-1.9169351E-2,-1.403684E-3,1.2468849E-2,-9.1870665E-4,4.7592735E-3,1.9934706E-2,2.8166772E-4,1.3990671E-2],"categories":[],"categories_nodes":[],"categories_segments":[],"categories_sizes":[],"default_left":[0,0,0,0,0,0,0,0,0,0,0,0,0,0,0,0,0,0,0,0,0,0,0,0,0],"id":46,"left_children":[1,3,5,7,-1,9,11,13,15,17,19,21,23,-1,-1,-1,-1,-1,-1,-1,-1,-1,-1,-1,-1],"loss_changes":[6.3311665E1,9.702084E0,1.4108437E1,3.844841E0,0E0,7.7194085E0,1.6286087E-1,1.3174171E0,9.905211E-1,3.2034392E0,2.5458255E0,1.7707253E0,1.8490896E0,0E0,0E0,0E0,0E0,0E0,0E0,0E0,0E0,0E0,0E0,0E0,0E0],"parents":[2147483647,0,0,1,1,2,2,3,3,5,5,6,6,7,7,8,8,9,9,10,10,11,11,12,12],"right_children":[2,4,6,8,-1,10,12,14,16,18,20,22,24,-1,-1,-1,-1,-1,-1,-1,-1,-1,-1,-1,-1],"split_conditions":[3.973847E-2,2.8592646E-1,2.0820323E-1,1.31947E-1,1.083309E-2,-6.0503564E0,1.3414627E-1,5.2357785E-2,3.601527E-2,8.750279E-2,1.5576126E-1,-6.0610027E0,6.072938E-2,-1.2656425E-2,-2.2119364E-2,3.1212727E-3,-6.4818133E-3,-1.9169351E-2,-1.403684E-3,1.2468849E-2,-9.1870665E-4,4.7592735E-3,1.9934706E-2,2.8166772E-4,1.3990671E-2],"split_indices":[4,7,8,10,0,0,10,3,4,5,6,0,4,0,0,0,0,0,0,0,0,0,0,0,0],"split_type":[0,0,0,0,0,0,0,0,0,0,0,0,0,0,0,0,0,0,0,0,0,0,0,0,0],"sum_hessian":[1.99E2,9.2E1,1.07E2,8.7E1,5E0,4.1E1,6.6E1,7.5E1,1.2E1,1.9E1,2.2E1,4.2E1,2.4E1,5.8E1,1.7E1,5E0,7E0,5E0,1.4E1,1.6E1,6E0,7E0,3.5E1,7E0,1.7E1],"tree_param":{"num_deleted":"0","num_feature":"17","num_nodes":"25","size_leaf_vector":"1"}},{"base_weights":[-1.8982336E-2,-6.2393934E-1,4.455606E-1,-7.539522E-1,-2.654703E-1,-0E0,6.937884E-1,-4.914266E-1,-9.4552696E-1,1.1230164E-2,-1.0543868E-2,-3.810379E-1,6.78235E-1,7.5486314E-1,-3.5162244E-4,-1.2726173E-2,-5.3568063E-3,-2.1513227E-2,-4.4741607E-3,-1.9523151E-2,-2.9008328E-3,4.535041E-3,1.7465575E-2,2.6093122E-2,1.2777976E-2],"categories":[],"categories_nodes":[],"categories_segments":[],"categories_sizes":[],"default_left":[0,0,0,0,0,0,0,0,0,0,0,0,0,0,0,0,0,0,0,0,0,0,0,0,0],"id":47,"left_children":[1,3,5,7,9,11,13,15,17,-1,-1,19,21,23,-1,-1,-1,-1,-1,-1,-1,-1,-1,-1,-1],"loss_changes":[5.544576E1,3.0980606E0,1.2620455E1,1.4201012E0,6.4187536E0,1.0965357E1,3.5233498E0,2.1127081E-1,1.8749199E0,0E0,0E0,3.0887222E0,3.748331E-1,1.6328125E0,0E0,0E0,0E0,0E0,0E0,0E0,0E0,0E0,0E0,0E0,0E0],"parents":[2147483647,0,0,1,1,2,2,3,3,4,4,5,5,6,6,7,7,8,8,11,11,12,12,13,13],"right_children":[2,4,6,8,10,12,14,16,18,-1,-1,20,22,24,-1,-1,-1,-1,-1,-1,-1,-1,-1,-1,-1],"split_conditions":[3.973847E-2,-6.0517626E0,2.1501844E-1,1.1658012E-1,-6.7567843E-1,-6.0485334E0,7.145428E-1,9.392371E-2,1.2809391E-1,1.1230164E-2,-1.0543868E-2,5.5655E-2,1.3771741E-1,9.45172E-2,-3.5162244E-4,-1.2726173E-2,-5.3568063E-3,-2.1513227E-2,-4.4741607E-3,-1.9523151E-2,-2.9008328E-3,4.535041E-3,1.7465575E-2,2.6093122E-2,1.2777976E-2],"split_indices":[4,0,7,10,15,0,14,5,10,0,0,11,10,5,0,0,0,0,0,0,0,0,0,0,0],"split_type":[0,0,0,0,0,0,0,0,0,0,0,0,0,0,0,0,0,0,0,0,0,0,0,0,0],"sum_hessian":[1.93E2,8.4E1,1.09E2,5.9E1,2.5E1,3.9E1,7E1,2.9E1,3E1,5E0,2E1,2.6E1,1.3E1,6.5E1,5E0,1.4E1,1.5E1,2.4E1,6E0,5E0,2.1E1,6E0,7E0,7E0,5.8E1],"tree_param":{"num_deleted":"0","num_feature":"17","num_nodes":"25","size_leaf_vector":"1"}},{"base_weights":[-5.851548E-3,-6.3574433E-1,4.707184E-1,-6.9588244E-1,3.0633993E-3,5.931736E-2,7.062084E-1,-8.439411E-1,-2.8856057E-1,-4.866809E-1,3.4502867E-1,8.798802E-1,4.8423815E-1,-1.7779179E-2,-4.0679714E-3,1.398582E-3,-1.1404217E-2,-1.5462148E-2,-0E0,1.3661103E-2,-9.75284E-5,1.911415E-2,4.6416596E-3,-0E0,1.1565749E-2],"categories":[],"categories_nodes":[],"categories_segments":[],"categories_sizes":[],"default_left":[0,0,0,0,0,0,0,0,0,0,0,0,0,0,0,0,0,0,0,0,0,0,0,0,0],"id":48,"left_children":[1,3,5,7,-1,9,11,13,15,17,19,21,23,-1,-1,-1,-1,-1,-1,-1,-1,-1,-1,-1,-1],"loss_changes":[5.831712E1,4.4698143E0,1.0190348E1,3.710987E0,0E0,6.97292E0,1.1257477E0,7.0700455E-1,2.854108E0,2.4240768E0,3.894067E0,6.8172264E-1,1.5909729E0,0E0,0E0,0E0,0E0,0E0,0E0,0E0,0E0,0E0,0E0,0E0,0E0],"parents":[2147483647,0,0,1,1,2,2,3,3,5,5,6,6,7,7,8,8,9,9,10,10,11,11,12,12],"right_children":[2,4,6,8,-1,10,12,14,16,18,20,22,24,-1,-1,-1,-1,-1,-1,-1,-1,-1,-1,-1,-1],"split_conditions":[3.973847E-2,2.8498772E-1,2.1501844E-1,5.8544755E-2,3.0633993E-3,-1.5413524E1,1.3094155E-1,4.970462E0,3.563695E-2,-9.116769E0,1.5498093E-1,5.64555E-2,4.8311196E-2,-1.7779179E-2,-4.0679714E-3,1.398582E-3,-1.1404217E-2,-1.5462148E-2,-0E0,1.3661103E-2,-9.75284E-5,1.911415E-2,4.6416596E-3,-0E0,1.1565749E-2],"split_indices":[4,7,7,11,0,13,10,1,4,12,6,4,4,0,0,0,0,0,0,0,0,0,0,0,0],"split_type":[0,0,0,0,0,0,0,0,0,0,0,0,0,0,0,0,0,0,0,0,0,0,0,0,0],"sum_hessian":[1.9E2,8.2E1,1.08E2,7.7E1,5E0,4.1E1,6.7E1,5.4E1,2.3E1,1.3E1,2.8E1,3.3E1,3.4E1,4.9E1,5E0,1E1,1.3E1,8E0,5E0,1.4E1,1.4E1,2.8E1,5E0,6E0,2.8E1],"tree_param":{"num_deleted":"0","num_feature":"17","num_nodes":"25","size_leaf_vector":"1"}},{"base_weights":[-5.0645307E-2,-5.83809E-1,4.2342868E-1,-7.1372354E-1,-1.4295055E-1,-1.2475057E-2,5.267446E-1,-7.496631E-1,-1.887617E-3,-4.517441E-1,2.2519982E-1,2.7936217E-1,8.3138007E-1,-1.1348239E-2,-2.0544762E-2,-1.2399816E-2,-2.9249662E-3,1.0987499E-2,-1.8377902E-3,1.1373709E-2,-2.3837216E-4,1.9700859E-2,7.8022894E-3],"categories":[],"categories_nodes":[],"categories_segments":[],"categories_sizes":[],"default_left":[0,0,0,0,0,0,0,0,0,0,0,0,0,0,0,0,0,0,0,0,0,0,0],"id":49,"left_children":[1,3,5,7,9,-1,11,13,-1,15,17,19,21,-1,-1,-1,-1,-1,-1,-1,-1,-1,-1],"loss_changes":[5.0873642E1,4.808632E0,1.2076805E1,1.0391121E0,3.1587992E0,0E0,6.3655415E0,1.4263611E0,0E0,2.0651507E-1,1.5632159E0,5.1798506E0,1.3917179E0,0E0,0E0,0E0,0E0,0E0,0E0,0E0,0E0,0E0,0E0],"parents":[2147483647,0,0,1,1,2,2,3,3,4,4,6,6,7,7,9,9,10,10,11,11,12,12],"right_children":[2,4,6,8,10,-1,12,14,-1,16,18,20,22,-1,-1,-1,-1,-1,-1,-1,-1,-1,-1],"split_conditions":[3.973847E-2,-6.047725E0,5.514073E-2,1.31947E-1,9.291156E-2,-1.2475057E-2,-6.0473394E0,1.17772E-1,-1.887617E-3,1.2815556E-1,-6.0391946E0,-6.0591135E0,1.00210756E-1,-1.1348239E-2,-2.0544762E-2,-1.2399816E-2,-2.9249662E-3,1.0987499E-2,-1.8377902E-3,1.1373709E-2,-2.3837216E-4,1.9700859E-2,7.8022894E-3],"split_indices":[4,0,11,10,5,0,0,10,0,10,0,0,5,0,0,0,0,0,0,0,0,0,0],"split_type":[0,0,0,0,0,0,0,0,0,0,0,0,0,0,0,0,0,0,0,0,0,0,0],"sum_hessian":[1.97E2,9.3E1,1.04E2,7E1,2.3E1,8E0,9.6E1,6.5E1,5E0,1.3E1,1E1,5.6E1,4E1,4.4E1,2.1E1,6E0,7E0,5E0,5E0,2.8E1,2.8E1,2.7E1,1.3E1],"tree_param":{"num_deleted":"0","num_feature":"17","num_nodes":"23","size_leaf_vector":"1"}},{"base_weights":[5.864981E-3,-5.457072E-1,4.4343817E-1,-6.349506E-1,1.0919114E-2,1.6909172E-1,7.6319355E-1,-7.8389215E-1,-2.8981462E-1,-1.359406E-1,4.5129734E-1,1.7907603E-2,3.196658E-1,-1.0198822E-2,-1.9828098E-2,6.141969E-4,-1.1305934E-2,-1.5087409E-2,1.9227096E-3,1.4045328E-2,1.3121896E-3,9.1627834E-4,8.729945E-3],"categories":[],"categories_nodes":[],"categories_segments":[],"categories_sizes":[],"default_left":[0,0,0,0,0,0,0,0,0,0,0,0,0,0,0,0,0,0,0,0,0,0,0],"id":50,"left_children":[1,3,5,7,-1,9,11,13,15,17,19,-1,21,-1,-1,-1,-1,-1,-1,-1,-1,-1,-1],"loss_changes":[4.60486E1,8.921398E0,8.662199E0,3.0697803E0,0E0,5.5313697E0,1.6341972E0,1.2511749E0,2.7743785E0,4.7798443E0,2.7181697E0,0E0,1.9876695E-1,0E0,0E0,0E0,0E0,0E0,0E0,0E0,0E0,0E0,0E0],"parents":[2147483647,0,0,1,1,2,2,3,3,5,5,6,6,7,7,8,8,9,9,10,10,12,12],"right_children":[2,4,6,8,-1,10,12,14,16,18,20,-1,22,-1,-1,-1,-1,-1,-1,-1,-1,-1,-1],"split_conditions":[3.9618228E-2,2.8498772E-1,-6.0473394E0,5.8544755E-2,1.0919114E-2,2.0769271E-1,1.00210756E-1,1.1436356E-1,3.546994E-2,-9.116769E0,4.9689507E0,1.7907603E-2,2.2888917E-1,-1.0198822E-2,-1.9828098E-2,6.141969E-4,-1.1305934E-2,-1.5087409E-2,1.9227096E-3,1.4045328E-2,1.3121896E-3,9.1627834E-4,8.729945E-3],"split_indices":[4,7,0,11,0,7,5,10,4,12,1,0,7,0,0,0,0,0,0,0,0,0,0],"split_type":[0,0,0,0,0,0,0,0,0,0,0,0,0,0,0,0,0,0,0,0,0,0,0],"sum_hessian":[1.87E2,8.2E1,1.05E2,7.7E1,5E0,5.9E1,4.6E1,5.1E1,2.6E1,2.8E1,3.1E1,3.3E1,1.3E1,2.6E1,2.5E1,1.2E1,1.4E1,7E0,2.1E1,1.7E1,1.4E1,6E0,7E0],"tree_param":{"num_deleted":"0","num_feature":"17","num_nodes":"23","size_leaf_vector":"1"}},{"base_weights":[2.2828441E-2,-4.6537414E-1,4.0704232E-1,-6.265399E-1,-5.7408955E-2,1.3817234E-1,7.549633E-1,-1.2369886E-1,-7.2034097E-1,1.9229531E-2,-3.842516E-1,6.157946E-1,-2.2349466E-1,5.4116714E-1,1.9089894E-2,-1.010594E-2,3.5724847E-3,-1.5690759E-2,-4.2468886E-4,-1.5663967E-2,-1.6112518E-3,1.5766662E-2,-0E0,-1.5958598E-2,-0E0,1.3244004E-2,3.5451697E-3],"categories":[],"categories_nodes":[],"categories_segments":[],"categories_sizes":[],"default_left":[0,0,0,0,0,0,0,0,0,0,0,0,0,0,0,0,0,0,0,0,0,0,0,0,0,0,0],"id":51,"left_children":[1,3,5,7,9,11,13,15,17,-1,19,21,23,25,-1,-1,-1,-1,-1,-1,-1,-1,-1,-1,-1,-1,-1],"loss_changes":[3.7676956E1,5.3720894E0,9.915443E0,2.3241215E0,9.774713E0,1.2044998E1,2.6672173E-1,1.84361E0,1.8527069E0,0E0,2.228509E0,2.9176989E0,5.0555687E0,6.228132E-1,0E0,0E0,0E0,0E0,0E0,0E0,0E0,0E0,0E0,0E0,0E0,0E0,0E0],"parents":[2147483647,0,0,1,1,2,2,3,3,4,4,5,5,6,6,7,7,8,8,10,10,11,11,12,12,13,13],"right_children":[2,4,6,8,10,12,14,16,18,-1,20,22,24,26,-1,-1,-1,-1,-1,-1,-1,-1,-1,-1,-1,-1,-1],"split_conditions":[3.3639535E-2,-6.047725E0,-6.0473394E0,-1.4901008E1,-6.045939E0,-6.0598817E0,-1.4373998E1,-6.0579147E0,4.9702826E0,1.9229531E-2,3.1607203E-2,4.9698052E0,-9.40151E0,-6.0382304E0,1.9089894E-2,-1.010594E-2,3.5724847E-3,-1.5690759E-2,-4.2468886E-4,-1.5663967E-2,-1.6112518E-3,1.5766662E-2,-0E0,-1.5958598E-2,-0E0,1.3244004E-2,3.5451697E-3],"split_indices":[2,0,0,13,0,0,13,0,1,0,2,1,12,0,0,0,0,0,0,0,0,0,0,0,0,0,0],"split_type":[0,0,0,0,0,0,0,0,0,0,0,0,0,0,0,0,0,0,0,0,0,0,0,0,0,0,0],"sum_hessian":[1.97E2,8.6E1,1.11E2,6E1,2.6E1,6.5E1,4.6E1,1.1E1,4.9E1,5E0,2.1E1,2.8E1,3.7E1,2.7E1,1.9E1,5E0,6E0,4.4E1,5E0,7E0,1.4E1,2.1E1,7E0,9E0,2.8E1,1.8E1,9E0],"tree_param":{"num_deleted":"0","num_feature":"17","num_nodes":"27","size_leaf_vector":"1"}},{"base_weights":[-2.8619504E-2,-5.9858674E-1,4.4132745E-1,-6.6515684E-1,5.9970096E-3,-0E0,5.638061E-1,-7.513406E-1,-2.649131E-1,-2.746529E-1,1.06801605E-2,5.964496E-1,-0E0,-9.557311E-3,-1.8207105E-2,1.4861147E-3,-8.647841E-3,-1.3493102E-2,-0E0,1.915138E-2,1.031036E-2],"categories":[],"categories_nodes":[],"categories_segments":[],"categories_sizes":[],"default_left":[0,0,0,0,0,0,0,0,0,0,0,0,0,0,0,0,0,0,0,0,0],"id":52,"left_children":[1,3,5,7,-1,9,11,13,15,17,-1,19,-1,-1,-1,-1,-1,-1,-1,-1,-1],"loss_changes":[5.257072E1,5.9045506E0,5.8613186E0,1.9913368E0,0E0,3.924297E0,1.4027233E0,1.3494339E0,1.3227301E0,1.828301E0,0E0,5.8502007E-1,0E0,0E0,0E0,0E0,0E0,0E0,0E0,0E0,0E0],"parents":[2147483647,0,0,1,1,2,2,3,3,5,5,6,6,7,7,8,8,9,9,11,11],"right_children":[2,4,6,8,-1,10,12,14,16,18,-1,20,-1,-1,-1,-1,-1,-1,-1,-1,-1],"split_conditions":[3.973847E-2,2.5017554E-1,5.4291442E-2,1.2809391E-1,5.9970096E-3,-6.0473394E0,7.145428E-1,1.1443288E-1,6.526383E-2,5.0363958E-2,1.06801605E-2,3.7683953E-2,-0E0,-9.557311E-3,-1.8207105E-2,1.4861147E-3,-8.647841E-3,-1.3493102E-2,-0E0,1.915138E-2,1.031036E-2],"split_indices":[4,6,3,10,0,0,14,10,11,3,0,2,0,0,0,0,0,0,0,0,0],"split_type":[0,0,0,0,0,0,0,0,0,0,0,0,0,0,0,0,0,0,0,0,0],"sum_hessian":[1.92E2,8.7E1,1.05E2,8.2E1,5E0,2.3E1,8.2E1,6.5E1,1.7E1,1.6E1,7E0,7.7E1,5E0,2.8E1,3.7E1,5E0,1.2E1,5E0,1.1E1,9E0,6.8E1],"tree_param":{"num_deleted":"0","num_feature":"17","num_nodes":"21","size_leaf_vector":"1"}},{"base_weights":[6.307201E-2,-2.785537E-1,5.564589E-1,-5.3038967E-1,1.2911582E-1,6.226975E-1,-4.6267454E-3,-6.0567987E-1,-1.7599305E-2,4.7419813E-1,-2.3634814E-1,2.7696756E-1,7.775814E-1,-1.3230649E-2,-0E0,6.8284036E-4,-2.7148165E-3,-0E0,1.75329E-2,3.2438855E-3,-8.746517E-3,6.4862915E-4,1.1626105E-2,2.1233542E-2,1.0893513E-2],"categories":[],"categories_nodes":[],"categories_segments":[],"categories_sizes":[],"default_left":[0,0,0,0,0,0,0,0,0,0,0,0,0,0,0,0,0,0,0,0,0,0,0,0,0],"id":53,"left_children":[1,3,5,7,9,11,-1,13,15,17,19,21,23,-1,-1,-1,-1,-1,-1,-1,-1,-1,-1,-1,-1],"loss_changes":[3.247415E1,1.193884E1,4.606203E0,2.4082165E0,5.8921423E0,3.004549E0,0E0,2.1292782E0,1.3342191E-1,4.593852E0,2.0415883E0,1.6648088E0,1.2824917E0,0E0,0E0,0E0,0E0,0E0,0E0,0E0,0E0,0E0,0E0,0E0,0E0],"parents":[2147483647,0,0,1,1,2,2,3,3,4,4,5,5,7,7,8,8,9,9,10,10,11,11,12,12],"right_children":[2,4,6,8,10,12,-1,14,16,18,20,22,24,-1,-1,-1,-1,-1,-1,-1,-1,-1,-1,-1,-1],"split_conditions":[5.8355622E-2,-6.0503564E0,7.1642894E-1,1.3076246E-1,-6.0447645E0,-8.232296E0,-4.6267454E-3,4.970101E0,-1.4767258E1,-6.0473394E0,4.969449E0,2.294944E-1,2.647927E-1,-1.3230649E-2,-0E0,6.8284036E-4,-2.7148165E-3,-0E0,1.75329E-2,3.2438855E-3,-8.746517E-3,6.4862915E-4,1.1626105E-2,2.1233542E-2,1.0893513E-2],"split_indices":[3,0,14,10,0,12,0,1,13,0,1,6,9,0,0,0,0,0,0,0,0,0,0,0,0],"split_type":[0,0,0,0,0,0,0,0,0,0,0,0,0,0,0,0,0,0,0,0,0,0,0,0,0],"sum_hessian":[1.88E2,1.11E2,7.7E1,6.9E1,4.2E1,7.2E1,5E0,5.9E1,1E1,2.2E1,2E1,2.5E1,4.7E1,5.4E1,5E0,5E0,5E0,1.1E1,1.1E1,6E0,1.4E1,1.6E1,9E0,1.7E1,3E1],"tree_param":{"num_deleted":"0","num_feature":"17","num_nodes":"25","size_leaf_vector":"1"}},{"base_weights":[-1.099715E-2,-4.3324745E-1,4.6572325E-1,-6.7882854E-1,-1.4721946E-1,-6.1600953E-3,5.630674E-1,-7.3749584E-1,-3.1905964E-3,6.5158736E-3,-2.730033E-1,-0E0,5.9856683E-1,-1.572431E-2,-4.6968684E-3,-7.804393E-3,7.3977243E-3,1.8723447E-2,9.311782E-3],"categories":[],"categories_nodes":[],"categories_segments":[],"categories_sizes":[],"default_left":[0,0,0,0,0,0,0,0,0,0,0,0,0,0,0,0,0,0,0],"id":54,"left_children":[1,3,5,7,9,-1,11,13,-1,-1,15,-1,17,-1,-1,-1,-1,-1,-1],"loss_changes":[3.96399E1,6.762623E0,7.4036293E0,9.918041E-1,3.2453566E0,0E0,1.6312962E0,2.9567146E-1,0E0,0E0,3.5391977E0,0E0,1.9291096E0,0E0,0E0,0E0,0E0,0E0,0E0],"parents":[2147483647,0,0,1,1,2,2,3,3,4,4,6,6,7,7,10,10,12,12],"right_children":[2,4,6,8,10,-1,12,14,-1,-1,16,-1,18,-1,-1,-1,-1,-1,-1],"split_conditions":[4.4024196E-2,4.968457E0,1.5721689E-1,-6.465443E0,-1.4722497E1,-6.1600953E-3,8.629847E-2,1.2809391E-1,-3.1905964E-3,6.5158736E-3,4.5772114E-1,-0E0,9.45172E-2,-1.572431E-2,-4.6968684E-3,-7.804393E-3,7.3977243E-3,1.8723447E-2,9.311782E-3],"split_indices":[4,1,8,12,13,0,5,10,0,0,16,0,5,0,0,0,0,0,0],"split_type":[0,0,0,0,0,0,0,0,0,0,0,0,0,0,0,0,0,0,0],"sum_hessian":[1.93E2,1.03E2,9E1,5.3E1,5E1,9E0,8.1E1,4.6E1,7E0,9E0,4.1E1,5E0,7.6E1,4E1,6E0,3.6E1,5E0,1.7E1,5.9E1],"tree_param":{"num_deleted":"0","num_feature":"17","num_nodes":"19","size_leaf_vector":"1"}},{"base_weights":[-1.18183745E-2,-5.2992886E-1,4.5961288E-1,-6.4180356E-1,-9.797611E-2,-9.530988E-3,5.466372E-1,-4.4766036E-1,-1.6696237E-2,-4.2862064E-1,8.386299E-3,3.199894E-1,7.0649165E-1,-5.4564923E-3,-1.1901351E-2,-2.5526916E-3,-1.1951495E-2,1.1333116E-2,-3.6535054E-3,1.584945E-2,4.0858667E-3],"categories":[],"categories_nodes":[],"categories_segments":[],"categories_sizes":[],"default_left":[0,0,0,0,0,0,0,0,0,0,0,0,0,0,0,0,0,0,0,0,0],"id":55,"left_children":[1,3,5,7,9,-1,11,13,-1,15,-1,17,19,-1,-1,-1,-1,-1,-1,-1,-1],"loss_changes":[4.6441936E1,3.9018822E0,8.62146E0,1.271801E0,4.126975E0,0E0,2.3678398E0,2.9800987E-1,0E0,2.4764562E-1,0E0,5.7306094E0,1.3799763E0,0E0,0E0,0E0,0E0,0E0,0E0,0E0,0E0],"parents":[2147483647,0,0,1,1,2,2,3,3,4,4,6,6,7,7,9,9,11,11,12,12],"right_children":[2,4,6,8,10,-1,12,14,-1,16,-1,18,20,-1,-1,-1,-1,-1,-1,-1,-1],"split_conditions":[3.973847E-2,-6.047725E0,-1.6762775E1,-1.4162776E1,9.299182E-2,-9.530988E-3,-6.050141E0,3.166989E-2,-1.6696237E-2,-6.2053293E-1,8.386299E-3,-6.0592895E0,5.7032797E-2,-5.4564923E-3,-1.1901351E-2,-2.5526916E-3,-1.1951495E-2,1.1333116E-2,-3.6535054E-3,1.584945E-2,4.0858667E-3],"split_indices":[4,0,13,13,5,0,0,2,0,15,0,0,4,0,0,0,0,0,0,0,0],"split_type":[0,0,0,0,0,0,0,0,0,0,0,0,0,0,0,0,0,0,0,0,0],"sum_hessian":[1.86E2,8.9E1,9.7E1,6.9E1,2E1,7E0,9E1,3.9E1,3E1,1.3E1,7E0,4.1E1,4.9E1,2.2E1,1.7E1,7E0,6E0,2.8E1,1.3E1,4E1,9E0],"tree_param":{"num_deleted":"0","num_feature":"17","num_nodes":"21","size_leaf_vector":"1"}},{"base_weights":[1.0991927E-2,-5.029244E-1,4.5345277E-1,-5.7718235E-1,7.299223E-3,-8.531303E-3,5.180957E-1,-4.5834082E-1,-8.153138E-1,2.4873476E-1,6.253848E-1,-1.157824E-2,-0E0,-2.0396845E-2,-5.208442E-3,1.0984368E-2,-3.8047796E-3,1.3566908E-2,8.486843E-4],"categories":[],"categories_nodes":[],"categories_segments":[],"categories_sizes":[],"default_left":[0,0,0,0,0,0,0,0,0,0,0,0,0,0,0,0,0,0,0],"id":56,"left_children":[1,3,5,7,-1,-1,9,11,13,15,17,-1,-1,-1,-1,-1,-1,-1,-1],"loss_changes":[3.9542076E1,5.6832047E0,5.83514E0,7.3828316E-1,0E0,0E0,1.823885E0,3.316987E0,1.2120028E0,4.345588E0,1.4653206E0,0E0,0E0,0E0,0E0,0E0,0E0,0E0,0E0],"parents":[2147483647,0,0,1,1,2,2,3,3,6,6,7,7,8,8,9,9,10,10],"right_children":[2,4,6,8,-1,-1,10,12,14,16,18,-1,-1,-1,-1,-1,-1,-1,-1],"split_conditions":[3.973847E-2,2.7991983E-1,1.5009847E-1,3.563695E-2,7.299223E-3,-8.531303E-3,2.0820323E-1,5.8796283E-2,6.633988E-2,1.8035111E-1,4.0488014E-1,-1.157824E-2,-0E0,-2.0396845E-2,-5.208442E-3,1.0984368E-2,-3.8047796E-3,1.3566908E-2,8.486843E-4],"split_indices":[4,8,8,4,0,0,8,11,11,7,16,0,0,0,0,0,0,0,0],"split_type":[0,0,0,0,0,0,0,0,0,0,0,0,0,0,0,0,0,0,0],"sum_hessian":[1.7E2,7.8E1,9.2E1,7.3E1,5E0,5E0,8.7E1,5.4E1,1.9E1,2.8E1,5.9E1,4.3E1,1.1E1,1.2E1,7E0,1.7E1,1.1E1,5.3E1,6E0],"tree_param":{"num_deleted":"0","num_feature":"17","num_nodes":"19","size_leaf_vector":"1"}},{"base_weights":[-3.6160275E-2,-4.6468395E-1,3.433973E-1,-5.3568256E-1,9.987022E-3,1.2668454E-2,6.0234416E-1,-6.339078E-1,-1.5680607E-2,-7.591967E-1,2.8921872E-1,-1.1002533E-3,1.3517377E-2,-9.829395E-3,-1.8886872E-2,6.8328273E-3,-5.263433E-3,-2.0603491E-2,-3.2233142E-3,1.0033912E-2,-0E0],"categories":[],"categories_nodes":[],"categories_segments":[],"categories_sizes":[],"default_left":[0,0,0,0,0,0,0,0,0,0,0,0,0,0,0,0,0,0,0,0,0],"id":57,"left_children":[1,3,5,7,-1,9,11,13,15,17,19,-1,-1,-1,-1,-1,-1,-1,-1,-1,-1],"loss_changes":[3.2421715E1,6.9869995E0,8.669558E0,4.201206E0,0E0,1.0663674E1,3.1880436E0,1.6259823E0,1.6439636E0,1.1789641E0,2.1070657E0,0E0,0E0,0E0,0E0,0E0,0E0,0E0,0E0,0E0,0E0],"parents":[2147483647,0,0,1,1,2,2,3,3,5,5,6,6,7,7,8,8,9,9,10,10],"right_children":[2,4,6,8,-1,10,12,14,16,18,20,-1,-1,-1,-1,-1,-1,-1,-1,-1,-1],"split_conditions":[3.973847E-2,2.8592646E-1,-6.0505795E0,1.2815556E-1,9.987022E-3,5.4291442E-2,-1.57593565E1,5.2357785E-2,6.526383E-2,1.247275E-1,4.967284E0,-1.1002533E-3,1.3517377E-2,-9.829395E-3,-1.8886872E-2,6.8328273E-3,-5.263433E-3,-2.0603491E-2,-3.2233142E-3,1.0033912E-2,-0E0],"split_indices":[4,7,0,10,0,3,13,3,11,10,1,0,0,0,0,0,0,0,0,0,0],"split_type":[0,0,0,0,0,0,0,0,0,0,0,0,0,0,0,0,0,0,0,0,0],"sum_hessian":[1.95E2,9.2E1,1.03E2,8.7E1,5E0,4.7E1,5.6E1,7.2E1,1.5E1,1.1E1,3.6E1,5E0,5.1E1,5.4E1,1.8E1,5E0,1E1,6E0,5E0,1.9E1,1.7E1],"tree_param":{"num_deleted":"0","num_feature":"17","num_nodes":"21","size_leaf_vector":"1"}},{"base_weights":[-3.078271E-2,-5.4244816E-1,3.6950105E-1,-6.717252E-1,-1.881311E-1,1.2287894E-1,6.065244E-1,-1.4719602E-2,-1.9129409E-3,6.610818E-3,-4.017868E-1,4.8520252E-1,-3.3072555E-1,7.0147765E-1,4.9088555E-3,-1.3535653E-2,-2.2226025E-3,1.3445644E-2,-0E0,-1.0547482E-2,3.9444256E-4,1.5740125E-2,2.840478E-4],"categories":[],"categories_nodes":[],"categories_segments":[],"categories_sizes":[],"default_left":[0,0,0,0,0,0,0,0,0,0,0,0,0,0,0,0,0,0,0,0,0,0,0],"id":58,"left_children":[1,3,5,7,9,11,13,-1,-1,-1,15,17,19,21,-1,-1,-1,-1,-1,-1,-1,-1,-1],"loss_changes":[3.858226E1,3.1191463E0,5.624036E0,1.6273308E0,3.1824846E0,9.437515E0,9.650612E-1,0E0,0E0,0E0,1.0542092E0,2.86167E0,1.997504E0,1.8695259E0,0E0,0E0,0E0,0E0,0E0,0E0,0E0,0E0,0E0],"parents":[2147483647,0,0,1,1,2,2,3,3,4,4,5,5,6,6,10,10,11,11,12,12,13,13],"right_children":[2,4,6,8,10,12,14,-1,-1,-1,16,18,20,22,-1,-1,-1,-1,-1,-1,-1,-1,-1],"split_conditions":[3.469983E-2,-6.0517626E0,-6.050141E0,4.969745E0,-6.045939E0,-6.0598817E0,1.00210756E-1,-1.4719602E-2,-1.9129409E-3,6.610818E-3,7.198611E-1,4.969656E0,4.3146957E-2,7.085186E-2,4.9088555E-3,-1.3535653E-2,-2.2226025E-3,1.3445644E-2,-0E0,-1.0547482E-2,3.9444256E-4,1.5740125E-2,2.840478E-4],"split_indices":[2,0,0,1,0,0,5,0,0,0,14,1,2,11,0,0,0,0,0,0,0,0,0],"split_type":[0,0,0,0,0,0,0,0,0,0,0,0,0,0,0,0,0,0,0,0,0,0,0],"sum_hessian":[1.84E2,8.1E1,1.03E2,5.7E1,2.4E1,5.3E1,5E1,5E1,7E0,6E0,1.8E1,3E1,2.3E1,3.7E1,1.3E1,7E0,1.1E1,2.1E1,9E0,1.5E1,8E0,3.2E1,5E0],"tree_param":{"num_deleted":"0","num_feature":"17","num_nodes":"23","size_leaf_vector":"1"}},{"base_weights":[-0E0,-4.8512432E-1,3.9205307E-1,-1.4496217E-2,-1.9146012E-1,5.249379E-2,5.7701063E-1,-2.9475203E-1,7.641073E-3,-3.8974908E-1,4.5591515E-1,6.140533E-1,-0E0,-1.0747382E-3,-8.9296345E-3,-1.3756752E-3,-1.8811971E-2,1.2268451E-2,-6.0875755E-4,1.6842453E-2,8.525837E-3],"categories":[],"categories_nodes":[],"categories_segments":[],"categories_sizes":[],"default_left":[0,0,0,0,0,0,0,0,0,0,0,0,0,0,0,0,0,0,0,0,0],"id":59,"left_children":[1,3,5,-1,7,9,11,13,-1,15,17,19,-1,-1,-1,-1,-1,-1,-1,-1,-1],"loss_changes":[3.902053E1,5.739956E0,6.721527E0,0E0,2.847341E0,8.060107E0,1.2913456E0,1.1646712E0,0E0,3.0787885E0,2.167336E0,1.5169277E0,0E0,0E0,0E0,0E0,0E0,0E0,0E0,0E0,0E0],"parents":[2147483647,0,0,1,1,2,2,4,4,5,5,6,6,7,7,9,9,10,10,11,11],"right_children":[2,4,6,-1,8,10,12,14,-1,16,18,20,-1,-1,-1,-1,-1,-1,-1,-1,-1],"split_conditions":[3.973847E-2,4.9683924E0,2.0820323E-1,-1.4496217E-2,2.7724367E-1,-6.0503564E0,7.145428E-1,4.9698377E0,7.641073E-3,4.9671597E0,2.1952398E-1,1.00210756E-1,-0E0,-1.0747382E-3,-8.9296345E-3,-1.3756752E-3,-1.8811971E-2,1.2268451E-2,-6.0875755E-4,1.6842453E-2,8.525837E-3],"split_indices":[4,1,8,0,8,0,14,1,0,1,9,5,0,0,0,0,0,0,0,0,0],"split_type":[0,0,0,0,0,0,0,0,0,0,0,0,0,0,0,0,0,0,0,0,0],"sum_hessian":[2.01E2,9E1,1.11E2,4.7E1,4.3E1,4.1E1,7E1,3.8E1,5E0,1.9E1,2.2E1,6.5E1,5E0,1.7E1,2.1E1,1.4E1,5E0,1.7E1,5E0,2.5E1,4E1],"tree_param":{"num_deleted":"0","num_feature":"17","num_nodes":"21","size_leaf_vector":"1"}},{"base_weights":[-9.359561E-3,-4.3988895E-1,3.5631728E-1,-5.210986E-1,1.2473706E-2,-0E0,5.850621E-1,-6.1981547E-1,-2.2258489E-1,-2.1141648E-2,1.8187971E-1,1.27823455E-2,-0E0,-8.417639E-3,-1.52000915E-2,3.3787945E-3,-1.2360519E-2,-8.585563E-5,1.0747201E-2],"categories":[],"categories_nodes":[],"categories_segments":[],"categories_sizes":[],"default_left":[0,0,0,0,0,0,0,0,0,0,0,0,0,0,0,0,0,0,0],"id":60,"left_children":[1,3,5,7,-1,9,11,13,15,-1,17,-1,-1,-1,-1,-1,-1,-1,-1],"loss_changes":[3.1369886E1,8.544983E0,9.00671E0,1.866621E0,0E0,9.079012E0,2.3250809E0,5.2677536E-1,4.458809E0,0E0,2.7860126E0,0E0,0E0,0E0,0E0,0E0,0E0,0E0,0E0],"parents":[2147483647,0,0,1,1,2,2,3,3,5,5,6,6,7,7,8,8,10,10],"right_children":[2,4,6,8,-1,10,12,14,16,-1,18,-1,-1,-1,-1,-1,-1,-1,-1],"split_conditions":[3.973847E-2,2.7999255E-1,2.0820323E-1,5.8796283E-2,1.2473706E-2,5.6790855E-2,7.145428E-1,1.14899404E-1,3.546994E-2,-2.1141648E-2,-6.0473394E0,1.27823455E-2,-0E0,-8.417639E-3,-1.52000915E-2,3.3787945E-3,-1.2360519E-2,-8.585563E-5,1.0747201E-2],"split_indices":[4,8,8,11,0,11,14,10,4,0,0,0,0,0,0,0,0,0,0],"split_type":[0,0,0,0,0,0,0,0,0,0,0,0,0,0,0,0,0,0,0],"sum_hessian":[1.95E2,9E1,1.05E2,8.5E1,5E0,4.1E1,6.4E1,6.1E1,2.4E1,5E0,3.6E1,5.9E1,5E0,3E1,3.1E1,1.2E1,1.2E1,2.4E1,1.2E1],"tree_param":{"num_deleted":"0","num_feature":"17","num_nodes":"19","size_leaf_vector":"1"}},{"base_weights":[2.3622105E-2,-4.4506234E-1,4.6090922E-1,-5.2228785E-1,9.642866E-3,-7.5111613E-3,5.1524377E-1,-5.7874525E-1,-5.604423E-2,3.0581224E-1,6.8718773E-1,-9.541181E-3,-1.5903825E-2,2.2064005E-3,-5.0020376E-3,-0E0,9.584934E-3,1.6476791E-2,6.1950404E-3],"categories":[],"categories_nodes":[],"categories_segments":[],"categories_sizes":[],"default_left":[0,0,0,0,0,0,0,0,0,0,0,0,0,0,0,0,0,0,0],"id":61,"left_children":[1,3,5,7,-1,-1,9,11,13,15,17,-1,-1,-1,-1,-1,-1,-1,-1],"loss_changes":[4.1408127E1,7.469288E0,5.229002E0,2.0131187E0,0E0,0E0,2.684248E0,3.6593437E-1,5.447688E-1,2.4439435E0,1.6048508E0,0E0,0E0,0E0,0E0,0E0,0E0,0E0,0E0],"parents":[2147483647,0,0,1,1,2,2,3,3,6,6,7,7,8,8,9,9,10,10],"right_children":[2,4,6,8,-1,-1,10,12,14,16,18,-1,-1,-1,-1,-1,-1,-1,-1],"split_conditions":[3.973847E-2,2.7991983E-1,1.5009847E-1,1.31947E-1,9.642866E-3,-7.5111613E-3,-6.0485334E0,3.563695E-2,1.3511547E-1,-5.669686E-1,1.00210756E-1,-9.541181E-3,-1.5903825E-2,2.2064005E-3,-5.0020376E-3,-0E0,9.584934E-3,1.6476791E-2,6.1950404E-3],"split_indices":[4,8,8,10,0,0,0,4,10,15,5,0,0,0,0,0,0,0,0],"split_type":[0,0,0,0,0,0,0,0,0,0,0,0,0,0,0,0,0,0,0],"sum_hessian":[1.98E2,9.5E1,1.03E2,8.9E1,6E0,5E0,9.8E1,7.8E1,1.1E1,4.8E1,5E1,5.9E1,1.9E1,5E0,6E0,1.9E1,2.9E1,3.4E1,1.6E1],"tree_param":{"num_deleted":"0","num_feature":"17","num_nodes":"19","size_leaf_vector":"1"}},{"base_weights":[2.340853E-2,-4.394073E-1,3.9797723E-1,-6.451319E-1,-1.799824E-1,-1.6358063E-1,5.398398E-1,-3.7026075E-1,-1.7522197E-2,-4.0546772E-1,3.295964E-1,-6.073455E-1,6.9031236E-3,2.4857132E-1,7.144669E-1,-1.7475432E-2,-9.917495E-4,-1.2673571E-2,-2.5398275E-3,-1.1126007E-3,1.2935409E-2,-2.0352338E-2,-6.804341E-4,1.0000613E-2,-4.695689E-3,1.5186363E-2,2.8833675E-3],"categories":[],"categories_nodes":[],"categories_segments":[],"categories_sizes":[],"default_left":[0,0,0,0,0,0,0,0,0,0,0,0,0,0,0,0,0,0,0,0,0,0,0,0,0,0,0],"id":62,"left_children":[1,3,5,7,9,11,13,15,-1,17,19,21,-1,23,25,-1,-1,-1,-1,-1,-1,-1,-1,-1,-1,-1,-1],"loss_changes":[3.274667E1,3.8383045E0,8.729469E0,1.5850487E0,5.016221E0,5.517062E0,3.4866772E0,3.488226E0,0E0,1.3652606E0,1.9559197E0,2.4627771E0,0E0,4.7430162E0,6.338253E-1,0E0,0E0,0E0,0E0,0E0,0E0,0E0,0E0,0E0,0E0,0E0,0E0],"parents":[2147483647,0,0,1,1,2,2,3,3,4,4,5,5,6,6,7,7,9,9,10,10,11,11,13,13,14,14],"right_children":[2,4,6,8,10,12,14,16,-1,18,20,22,-1,24,26,-1,-1,-1,-1,-1,-1,-1,-1,-1,-1,-1,-1],"split_conditions":[3.9618228E-2,4.968457E0,-1.57593565E1,3.166989E-2,-7.4036865E0,1.951252E-1,-6.050141E0,2.9524304E-2,-1.7522197E-2,3.1607203E-2,4.969323E0,5.407719E-2,6.9031236E-3,-6.0592494E0,5.103886E0,-1.7475432E-2,-9.917495E-4,-1.2673571E-2,-2.5398275E-3,-1.1126007E-3,1.2935409E-2,-2.0352338E-2,-6.804341E-4,1.0000613E-2,-4.695689E-3,1.5186363E-2,2.8833675E-3],"split_indices":[4,1,13,2,12,8,0,2,0,2,1,3,0,0,1,0,0,0,0,0,0,0,0,0,0,0,0],"split_type":[0,0,0,0,0,0,0,0,0,0,0,0,0,0,0,0,0,0,0,0,0,0,0,0,0,0,0],"sum_hessian":[1.85E2,8.2E1,1.03E2,4.3E1,3.9E1,2E1,8.3E1,2.3E1,2E1,2.8E1,1.1E1,1.1E1,9E0,3.4E1,4.9E1,7E0,1.6E1,1.3E1,1.5E1,5E0,6E0,5E0,6E0,2.3E1,1.1E1,4.4E1,5E0],"tree_param":{"num_deleted":"0","num_feature":"17","num_nodes":"27","size_leaf_vector":"1"}},{"base_weights":[6.78179E-2,-3.9897686E-1,4.7079E-1,-4.683112E-1,9.511996E-3,9.062042E-2,6.302926E-1,-5.930106E-1,-1.3926279E-2,-3.9359027E-1,3.781638E-1,7.189142E-1,2.5677064E-1,-1.2649724E-2,-2.7575222E-4,5.9143887E-3,-6.7422763E-3,-1.1662911E-2,-1.3366365E-3,3.0592622E-3,9.788016E-3,1.6285755E-2,2.704856E-3,-0E0,8.35777E-3],"categories":[],"categories_nodes":[],"categories_segments":[],"categories_sizes":[],"default_left":[0,0,0,0,0,0,0,0,0,0,0,0,0,0,0,0,0,0,0,0,0,0,0,0,0],"id":63,"left_children":[1,3,5,7,-1,9,11,13,15,17,19,21,23,-1,-1,-1,-1,-1,-1,-1,-1,-1,-1,-1,-1],"loss_changes":[3.633968E1,5.8386116E0,5.831663E0,4.439583E0,0E0,5.023844E0,1.5263157E0,1.1456604E0,2.321626E0,4.0227032E-1,1.0526228E-1,2.4223251E0,9.0880895E-1,0E0,0E0,0E0,0E0,0E0,0E0,0E0,0E0,0E0,0E0,0E0,0E0],"parents":[2147483647,0,0,1,1,2,2,3,3,5,5,6,6,7,7,8,8,9,9,10,10,11,11,12,12],"right_children":[2,4,6,8,-1,10,12,14,16,18,20,22,24,-1,-1,-1,-1,-1,-1,-1,-1,-1,-1,-1,-1],"split_conditions":[3.973847E-2,2.8498772E-1,4.967229E0,1.2673768E-1,9.511996E-3,5.6208186E-2,5.6361355E-2,4.970462E0,3.563695E-2,9.0266325E-2,7.614136E-2,6.825555E-1,2.5359476E-1,-1.2649724E-2,-2.7575222E-4,5.9143887E-3,-6.7422763E-3,-1.1662911E-2,-1.3366365E-3,3.0592622E-3,9.788016E-3,1.6285755E-2,2.704856E-3,-0E0,8.35777E-3],"split_indices":[4,7,1,10,0,3,4,1,4,5,3,14,8,0,0,0,0,0,0,0,0,0,0,0,0],"split_type":[0,0,0,0,0,0,0,0,0,0,0,0,0,0,0,0,0,0,0,0,0,0,0,0,0],"sum_hessian":[1.89E2,8.7E1,1.02E2,8.2E1,5E0,3.2E1,7E1,6.3E1,1.9E1,1.1E1,2.1E1,5.4E1,1.6E1,5.8E1,5E0,9E0,1E1,5E0,6E0,1E1,1.1E1,4.5E1,9E0,6E0,1E1],"tree_param":{"num_deleted":"0","num_feature":"17","num_nodes":"25","size_leaf_vector":"1"}},{"base_weights":[-3.0431284E-2,-4.8873508E-1,3.3554667E-1,-5.8553696E-1,-2.3417002E-1,4.782978E-2,5.2854043E-1,-1.8936717E-3,-6.265507E-1,-1.3017457E-2,1.0713469E-1,-1.7513815E-2,2.1137702E-1,6.734636E-1,3.0272993E-1,-6.4916047E-3,-1.4032684E-2,8.5449E-3,-4.335912E-3,5.9239296E-3,-4.5183864E-3,9.2182634E-4,1.55839715E-2,-5.533082E-4,7.820444E-3],"categories":[],"categories_nodes":[],"categories_segments":[],"categories_sizes":[],"default_left":[0,0,0,0,0,0,0,0,0,0,0,0,0,0,0,0,0,0,0,0,0,0,0,0,0],"id":64,"left_children":[1,3,5,7,9,11,13,-1,15,-1,17,-1,19,21,23,-1,-1,-1,-1,-1,-1,-1,-1,-1,-1],"loss_changes":[3.311175E1,1.4844456E0,5.7137585E0,7.4876976E-1,4.535788E0,7.1368895E0,1.1985607E0,0E0,2.7843666E-1,0E0,2.0532627E0,0E0,1.7268039E0,1.9035931E0,1.078455E0,0E0,0E0,0E0,0E0,0E0,0E0,0E0,0E0,0E0,0E0],"parents":[2147483647,0,0,1,1,2,2,3,3,4,4,5,5,6,6,8,8,10,10,12,12,13,13,14,14],"right_children":[2,4,6,8,10,12,14,-1,16,-1,18,-1,20,22,24,-1,-1,-1,-1,-1,-1,-1,-1,-1,-1],"split_conditions":[3.9618228E-2,5.8544755E-2,-1.4839902E1,8.958397E-2,2.1942262E-1,5.5655E-2,9.999315E-2,-1.8936717E-3,4.8554108E-2,-1.3017457E-2,3.1799577E-2,-1.7513815E-2,4.969378E0,4.1760508E-2,6.426191E-2,-6.4916047E-3,-1.4032684E-2,8.5449E-3,-4.335912E-3,5.9239296E-3,-4.5183864E-3,9.2182634E-4,1.55839715E-2,-5.533082E-4,7.820444E-3],"split_indices":[4,11,13,5,7,11,5,0,11,0,2,0,1,4,3,0,0,0,0,0,0,0,0,0,0],"split_type":[0,0,0,0,0,0,0,0,0,0,0,0,0,0,0,0,0,0,0,0,0,0,0,0,0],"sum_hessian":[1.93E2,8.6E1,1.07E2,5.9E1,2.7E1,4.5E1,6.2E1,6E0,5.3E1,1.2E1,1.5E1,5E0,4E1,3.4E1,2.8E1,1.4E1,3.9E1,8E0,7E0,3.5E1,5E0,6E0,2.8E1,5E0,2.3E1],"tree_param":{"num_deleted":"0","num_feature":"17","num_nodes":"25","size_leaf_vector":"1"}},{"base_weights":[-2.3865283E-2,-3.8509867E-1,3.7606367E-1,4.7879335E-3,-4.3432537E-1,-2.9998723E-1,4.8277035E-1,-5.1860386E-1,2.0642474E-2,-1.3666522E-2,3.0479282E-3,2.9522198E-1,6.430576E-1,-8.367941E-3,-2.2128267E-2,4.558149E-3,-1.98596E-3,1.0414513E-2,-2.935626E-3,1.9263674E-2,7.981147E-3],"categories":[],"categories_nodes":[],"categories_segments":[],"categories_sizes":[],"default_left":[0,0,0,0,0,0,0,0,0,0,0,0,0,0,0,0,0,0,0,0,0],"id":65,"left_children":[1,3,5,-1,7,9,11,13,15,-1,-1,17,19,-1,-1,-1,-1,-1,-1,-1,-1],"loss_changes":[2.788749E1,3.4410858E0,6.9457035E0,0E0,3.951416E0,2.7281487E0,1.5560989E0,3.141758E0,5.0731754E-1,0E0,0E0,4.5261188E0,1.6745853E0,0E0,0E0,0E0,0E0,0E0,0E0,0E0,0E0],"parents":[2147483647,0,0,1,1,2,2,4,4,5,5,6,6,7,7,8,8,11,11,12,12],"right_children":[2,4,6,-1,8,10,12,14,16,-1,-1,18,20,-1,-1,-1,-1,-1,-1,-1,-1],"split_conditions":[4.4024196E-2,-6.0604415E0,